tree
version=v4
num_class=1
num_tree_per_iteration=1
label_index=0
max_feature_idx=22
objective=binary sigmoid:1
feature_names=LIMIT_BAL SEX EDUCATION MARRIAGE AGE PAY_0 PAY_2 PAY_3 PAY_4 PAY_5 PAY_6 BILL_AMT1 BILL_AMT2 BILL_AMT3 BILL_AMT4 BILL_AMT5 BILL_AMT6 PAY_AMT1 PAY_AMT2 PAY_AMT3 PAY_AMT4 PAY_AMT5 PAY_AMT6
feature_infos=[10000:1000000] -1:2:1 -1:2:1:3:5:4:6 -1:2:1:3 [21:75] [-2:8] [-2:8] [-2:8] [-2:8] [-2:8] [-2:8] [-165580:964511] [-69777:983931] [-61506:855086] [-81334:891586] [-81334:927171] [-339603:961664] [0:873552] [0:1215471] [0:896040] [0:621000] [0:426529] [0:528666]
tree_sizes=3353 3425 3426 3442 3435 3442 3438 3465 3452 3459 3468 3448 3471 3452 3452 3455 3461 3500 3455 3488 3455 3443 3442 3473 3455 3432 3448 3472 3442 3464 3444 3465 3438 3432 3417 3406 3444 3457 3444 3468 3440 3409 3459 3421 3428 3427 3447 3441 3420 3445 3459 3440 3429 3460 3432 3449 3443 3442 3449 3438 3448 3464 3444 3445 3408 3411 3441 3478

Tree=0
num_leaves=31
num_cat=0
split_feature=5 5 7 9 17 11 17 7 20 8 10 21 7 19 10 4 8 8 4 18 18 10 18 12 9 12 21 18 4 4
split_gain=2922.68 524.921 151.382 104.155 102.807 53.8029 42.8334 30.8331 30.3125 28.1328 25.9432 25.058 22.7031 22.6487 19.7205 28.0558 25.632 19.3205 18.3186 17.1347 14.5524 14.3326 13.818 13.7964 13.6905 11.5557 13.6339 10.0617 9.56592 11.2037
threshold=1.5000000000000002 1.0000000180025095e-35 1.5000000000000002 1.0000000180025095e-35 1870.5000000000002 2212.5000000000005 5007.5000000000009 1.5000000000000002 781.00000000000011 1.0000000180025095e-35 1.0000000180025095e-35 580.50000000000011 -1.0000000180025095e-35 10570.500000000002 -1.4999999999999998 52.500000000000007 -1.0000000180025095e-35 1.0000000180025095e-35 43.500000000000007 16243.500000000002 1999.5000000000002 1.0000000180025095e-35 129.00000000000003 417.00000000000006 1.0000000180025095e-35 302884.50000000006 1100.5000000000002 5997.5000000000009 23.500000000000004 50.500000000000007
decision_type=2 2 2 2 2 2 2 2 2 2 2 2 2 2 2 2 2 2 2 2 2 2 2 2 2 2 2 2 2 2
left_child=1 2 4 6 11 12 7 14 -4 19 28 17 -2 -12 15 -3 -16 20 21 25 -1 -5 -10 -14 -13 26 -6 -23 -7 -30
right_child=5 3 8 18 9 10 -8 -9 22 -11 13 24 23 -15 16 -17 -18 -19 -20 -21 -22 27 -24 -25 -26 -27 -28 -29 29 -31
leaf_value=-1.261377692051951 -1.2271955909307179 -1.2245452094079587 -1.2089029145693624 -1.2212590006969466 -1.2858108899055405 -1.1626076879244094 -1.2897162030544933 -1.1951380036683528 -1.2689273492475797 -1.2548172260461816 -1.0931920218473057 -1.28239081788985 -1.2183566676937694 -1.2173012738744322 -1.2681300106907836 -1.1026636693602274 -1.2271664041547405 -1.2060394495827251 -1.1233052618397197 -1.3120513137888992 -1.2878825832208578 -1.1590200818510377 -1.226658690005183 -1.1137019541086188 -1.2391697944552917 -1.2610490499340519 -1.2973290454243462 -1.2368456038621569 -1.1181462983593016 -1.1584607335043093
leaf_weight=327.83970652520657 15.16021764278412 85.9653250426054 64.947750583291054 17.227520048618317 349.71865698695183 16.538419246673584 31.698636889457703 55.989440158009529 55.644889757037163 44.102451324462891 122.14311714470387 437.57900923490524 4.3068800121545818 3.7900544106960288 74.939712211489677 4.9959808140993109 77.868390619754791 14.126566439867018 16.538419246673584 139.02608679234982 61.50224657356739 38.761920109391212 29.631334483623505 11.714713633060454 19.122547253966331 26.702656075358391 968.1866267323494 4.6514304131269446 150.22397482395172 19.467097654938698
leaf_count=1903 88 499 377 100 2030 96 184 325 323 256 709 2540 25 22 435 29 452 82 96 807 357 225 172 68 111 155 5620 27 872 113
internal_value=-1.25877 -1.27486 -1.28332 -1.22226 -1.28639 -1.12071 -1.23444 -1.2286 -1.23464 -1.29417 -1.11446 -1.27256 -1.18334 -1.09693 -1.23628 -1.21785 -1.24726 -1.26348 -1.16995 -1.29534 -1.26556 -1.18267 -1.25424 -1.14183 -1.28058 -1.29361 -1.29427 -1.16736 -1.12631 -1.12277
internal_weight=3290.11 2946.77 2538.13 408.637 2387.91 343.344 331.457 299.759 150.224 1527.74 312.163 860.17 31.1818 125.933 243.769 90.9613 152.808 403.469 77.1793 1483.63 389.342 60.6409 85.2762 16.0216 456.702 1344.61 1317.91 43.4134 186.229 169.691
internal_count=19098 17105 14733 2372 13861 1993 1924 1740 872 8868 1812 4993 181 731 1415 528 887 2342 448 8612 2260 352 495 93 2651 7805 7650 252 1081 985
is_linear=0
shrinkage=1


Tree=1
num_leaves=31
num_cat=0
split_feature=5 6 19 9 0 11 9 11 11 7 0 9 7 7 22 19 9 4 10 6 11 0 6 4 11 19 7 17 0 22
split_gain=2464.53 540.169 172.049 82.8295 64.071 57.1871 44.1783 39.9088 36.5668 24.66 22.9444 19.0023 18.1509 18.0694 17.7324 17.6274 17.0385 16.0159 15.3861 14.9285 14.6621 17.0853 13.0019 12.4184 12.0616 11.5 11.3647 11.7654 11.0622 11.0006
threshold=1.5000000000000002 1.5000000000000002 1.0000000180025095e-35 1.0000000180025095e-35 65000.000000000007 535.50000000000011 1.0000000180025095e-35 2212.5000000000005 2096.5000000000005 1.5000000000000002 285000.00000000006 1.0000000180025095e-35 1.0000000180025095e-35 -1.0000000180025095e-35 7001.0000000000009 11727.000000000002 1.0000000180025095e-35 49.500000000000007 1.0000000180025095e-35 2.5000000000000004 132866.00000000003 145000.00000000003 2.5000000000000004 41.500000000000007 6488.5000000000009 1294.5000000000002 1.5000000000000002 2999.5000000000005 45000.000000000007 780.50000000000011
decision_type=2 2 2 2 2 2 2 2 2 2 2 2 2 2 2 2 2 2 2 2 2 2 2 2 2 2 2 2 2 2
left_child=1 2 5 4 26 17 10 13 -6 16 14 -9 -5 -2 22 19 28 -1 20 25 21 -10 -3 -8 -11 -13 -4 29 -7 -28
right_child=7 6 3 12 8 9 23 11 18 24 -12 15 -14 -15 -16 -17 -18 -19 -20 -21 -22 -23 -24 -25 -26 -27 27 -29 -30 -31
leaf_value=0.018862598650186625 0.029343246582944557 0.044795684750792431 -0.016532849704418314 0.0063325792319388202 -0.019197213340095793 0.0094954920135888535 0.072909633500348722 0.11627051413522758 -0.033902798132819267 0.11049424171446286 -0.024993468676794986 0.16869784085583012 0.058958902445933208 0.10402129532198504 -0.021830206549189605 0.040203096875162138 0.039529569806321718 0.064522692014635008 -0.0058479418858117544 0.10266882836252884 -0.029653061951727285 -0.047614593510478365 0.10006638543088078 0.11760867651481705 0.02042025486139341 0.13725906732905735 0.018564896381820455 -0.0081462335171307906 -0.022336126998069698 0.12177567340144956
leaf_weight=198.2945277094841 15.42570912837982 140.22861962020397 459.58515280485153 62.410404250025749 291.40611003339291 31.288103461265564 60.055343523621559 192.01774033904076 358.38215027749538 4.565886095166209 12.678935110568998 48.427574053406715 22.216981917619705 17.057095363736153 9.3856163471937162 4.2730650603771201 13.448944166302679 21.264638066291809 34.48062863945961 19.489508926868439 281.86292649805546 620.5637441277504 11.513998761773108 20.962243512272835 19.98139488697052 72.835362464189529 7.203458175063135 20.453253597021103 213.79423880577087 4.0238591730594635
leaf_count=1145 88 800 2705 363 1707 183 335 1037 2118 26 73 258 126 93 54 24 77 121 203 104 1669 3672 65 114 114 389 41 118 1253 23
internal_value=-0.000170556 -0.0155661 -0.0222156 -0.0283401 -0.0303149 0.00413483 0.0539821 0.121487 -0.0352002 -0.0107182 0.0397683 0.126588 0.0201484 0.0685576 0.0448643 0.140249 -0.0152655 0.0232848 -0.0388004 0.143286 -0.0397016 -0.0425948 0.0489895 0.0844749 0.0371744 0.149814 -0.0145362 0.0144291 -0.0182724 0.0555555
internal_weight=3289.58 2920.05 2665.23 2162.59 2077.96 502.638 254.825 369.526 1586.7 283.079 173.807 337.043 84.6274 32.4828 161.128 145.026 258.531 219.559 1295.29 140.752 1260.81 978.946 151.743 81.0176 24.5473 121.263 491.266 31.6806 245.082 11.2273
internal_count=19098 17105 15664 12745 12256 2919 1441 1993 9369 1653 992 1812 489 181 919 775 1513 1266 7662 751 7459 5790 865 449 140 647 2887 182 1436 64
is_linear=0
shrinkage=0.05


Tree=2
num_leaves=31
num_cat=0
split_feature=5 6 18 8 20 10 8 5 7 0 4 10 7 0 12 12 0 17 12 10 21 20 6 0 16 18 4 18 18 0
split_gain=2108.95 483.29 163.716 93.4314 42.1969 33.2147 32.0241 29.6941 28.7567 28.2521 24.4581 22.5404 21.4284 18.623 17.6481 20.8558 17.5596 16.7365 13.896 14.2495 13.2206 12.4876 11.2112 11.1972 11.1016 10.837 10.7789 12.0513 10.7133 10.4669
threshold=1.5000000000000002 1.5000000000000002 1500.5000000000002 1.0000000180025095e-35 1.0000000180025095e-35 1.0000000180025095e-35 1.0000000180025095e-35 1.0000000180025095e-35 -1.0000000180025095e-35 75000.000000000015 52.500000000000007 -1.4999999999999998 1.5000000000000002 285000.00000000006 3685.5000000000005 78653.500000000015 455000.00000000006 5952.0000000000009 417.00000000000006 1.0000000180025095e-35 728.50000000000011 280.50000000000006 2.5000000000000004 75000.000000000015 325.50000000000006 5900.5000000000009 40.500000000000007 699.50000000000011 4977.5000000000009 13000.000000000002
decision_type=2 2 2 2 2 2 2 2 2 2 2 2 2 2 2 2 2 2 2 2 2 2 2 2 2 2 2 2 2 2
left_child=1 2 4 9 7 13 11 12 21 28 24 -6 16 22 -11 -16 -1 18 -10 29 23 -2 -3 -5 -9 -7 27 -8 -4 -20
right_child=8 5 3 20 6 25 26 10 17 14 -12 -13 -14 -15 15 -17 -18 -19 19 -21 -22 -23 -24 -25 -26 -27 -28 -29 -30 -31
leaf_value=-0.0083418686413014934 0.094261223302709155 0.038864029281084289 -0.016706686227235347 0.080156111220486201 -0.043032794502140641 0.082973653815783546 0.032537382045990014 0.030582725764141474 0.030355492020780209 -0.02340538098420359 0.12222332620584545 -0.01228455186104295 0.039060397273377657 -0.017532825666025844 -0.04646500339120966 -0.032304711700193153 0.082292874050030052 0.084176668557445475 0.032558055221998582 0.12943366463390774 0.0061122866593705041 0.021189353035209819 0.085328328551573379 0.015198171803490902 -0.01092183564641315 0.018294472157304165 -0.0081117901326028165 0.12088177319248959 -0.041157358869930834 0.11000465196389045
leaf_weight=236.51223477721214 10.896883577108385 155.86287404596806 272.08633807301521 13.440740406513216 67.693835526704788 71.125524953007698 10.259026482701307 90.091300547122955 4.6505786478519431 193.32883821427822 6.605889528989791 498.60702311992645 29.183861553668976 13.863486707210539 556.68660758435726 487.9554006755352 5.4675266146659842 46.876346498727798 4.4751316756010047 138.68998375535011 63.910822108387947 12.615978077054022 14.16200231015682 13.100321948528288 19.620249256491661 7.1249104738235465 7.0513325482606879 6.1890589743852606 53.631030634045601 173.60954907536507
leaf_count=1388 59 867 1621 76 401 379 58 510 25 1156 35 2952 162 80 3374 2947 32 239 23 692 370 69 76 74 113 39 40 35 320 886
internal_value=-0.000200209 -0.0149415 -0.021391 -0.0309771 -0.00516557 0.0498007 -0.0135868 0.00765266 0.108664 -0.0338351 0.0287862 -0.0159601 -0.00141273 0.0381906 -0.0372825 -0.0398507 -0.00629398 0.112087 0.116157 0.117417 0.0184308 0.055054 0.0427342 0.0480937 0.0231603 0.0770844 0.0436074 0.0657795 -0.0207326 0.108058
internal_weight=3285.37 2893.56 2631.42 1654.14 977.281 262.139 589.8 387.481 391.814 1563.69 116.317 566.301 271.164 183.888 1237.97 1044.64 241.98 368.302 321.425 316.775 90.4519 23.5129 170.025 26.5411 109.712 78.2504 23.4994 16.4481 325.717 178.085
internal_count=19098 17105 15664 9938 5726 1441 3486 2240 1993 9418 658 3353 1582 1023 7477 6321 1420 1865 1626 1601 520 128 943 150 623 418 133 93 1941 909
is_linear=0
shrinkage=0.05


Tree=3
num_leaves=31
num_cat=0
split_feature=6 8 18 9 0 11 0 7 15 12 11 9 12 18 0 0 15 11 19 9 0 18 22 17 10 18 10 18 12 11
split_gain=1493.66 165.67 135.319 73.8376 42.2506 34.8589 49.4671 26.9373 22.2495 21.9869 26.3336 19.6033 15.4531 13.411 12.6138 11.3831 11.0701 10.9989 10.7241 10.9527 10.7024 10.3591 9.95745 9.79822 9.46167 9.37521 9.33707 9.18442 9.04436 8.87973
threshold=1.5000000000000002 1.0000000180025095e-35 1640.5000000000002 1.0000000180025095e-35 145000.00000000003 393.00000000000006 45000.000000000007 1.5000000000000002 584.00000000000011 156666.50000000003 1357.0000000000002 1.0000000180025095e-35 2080.5000000000005 4977.5000000000009 165000.00000000003 105000.00000000001 219.50000000000003 1357.0000000000002 147.50000000000003 -1.4999999999999998 295000.00000000006 1472.5000000000002 7075.0000000000009 1992.5000000000002 1.0000000180025095e-35 19000.500000000004 1.0000000180025095e-35 1930.5000000000002 75073.500000000015 6934.5000000000009
decision_type=2 2 2 2 2 2 2 2 2 2 2 2 2 2 2 2 2 2 2 2 2 2 2 2 2 2 2 2 2 2
left_child=1 2 5 7 11 8 21 22 18 10 -6 13 17 -4 -8 -3 -5 -9 20 -20 -1 -7 -2 -23 -10 -11 -12 -13 -15 -16
right_child=3 15 4 16 9 6 14 12 24 25 26 27 -14 28 29 -17 -18 -19 19 -21 -22 23 -24 -25 -26 -27 -28 -29 -30 -31
leaf_value=0.017020050168956379 0.047404895176620533 0.045259954081822248 -0.015443912698819607 0.018878767039126491 -0.013299822625657393 0.0069591107365907573 -0.010906889121777966 0.054088631429078528 -0.017577359992650126 -0.016895811489025431 -0.043535888670047242 0.10244234368975458 0.077570827095029798 -0.041345696751778731 -0.017981510711391483 0.01778499615437722 0.097040381738047965 -0.043622201379555754 -0.04072352985640524 0.010779146993148787 0.046564438621050926 0.05373532529093316 0.0011730511589612431 -0.0091587986397940781 0.052848206565736314 -0.054556846917311858 -0.003613082713449252 0.014390199207607413 -0.01478948820779509 -0.037198108549687595
leaf_weight=128.01058167219162 137.71034829318523 95.09409299492836 467.97755542397499 4.6183473020791999 87.834570169448853 138.94170680642128 298.80941644310951 8.2685383409261686 74.596121490001678 185.36214379966259 601.22491112351418 3.5342377275228527 146.71736273169518 99.306667238473892 140.52930924296379 62.46024027466774 236.9902850240469 4.4194291085004798 13.195576980710028 47.418483152985573 40.303673326969147 24.873843938112259 12.722801595926283 8.2452163249254209 5.0949556529521933 18.142170876264572 15.011308223009108 18.27475643157959 47.34821780025959 105.05655273795128
leaf_count=723 734 520 2806 24 528 809 1772 44 440 1124 3724 19 747 608 840 349 1161 24 79 277 227 143 71 49 29 112 90 105 287 633
internal_value=-0.000222062 -0.0154003 -0.0184525 0.0748273 -0.0278024 -0.00436908 -0.0104206 0.0586709 0.0096795 -0.0347287 -0.0389127 -0.0179255 0.0729928 -0.0195785 -0.0178068 0.0343679 0.0955463 0.0200543 0.0176004 -0.000432897 0.0240946 0.0129489 0.0434949 0.0380774 -0.0130748 -0.0202532 -0.0425634 0.0286594 -0.0327719 -0.026202
internal_weight=3278.09 2726.65 2569.09 551.447 1544.02 1025.08 716.456 309.838 308.619 907.575 704.071 636.441 159.405 614.632 544.395 157.554 241.609 12.688 228.928 60.6141 168.314 172.061 150.433 33.1191 79.6911 203.504 616.236 21.809 146.655 245.586
internal_count=19098 16293 15424 2805 9403 6021 4246 1620 1775 5578 4342 3825 815 3701 3245 869 1185 68 1306 356 950 1001 805 192 469 1236 3814 124 895 1473
is_linear=0
shrinkage=0.05


Tree=4
num_leaves=31
num_cat=0
split_feature=5 6 18 0 11 0 20 10 10 11 11 4 11 11 19 0 14 11 18 11 16 20 13 13 18 0 0 5 19 0
split_gain=1690.77 376.779 144.388 44.9827 39.2521 25.7111 24.5298 24.236 23.7741 23.6292 20.5116 19.6882 16.7858 15.9948 15.7549 15.4045 12.8205 11.7438 10.5245 10.1559 15.4058 12.6421 11.3894 10.8038 18.0745 10.019 9.87763 12.2602 9.81534 9.79661
threshold=1.5000000000000002 1.5000000000000002 1500.5000000000002 75000.000000000015 393.00000000000006 165000.00000000003 126.50000000000001 1.0000000180025095e-35 1.0000000180025095e-35 2212.5000000000005 1357.0000000000002 48.500000000000007 104240.00000000001 389.50000000000006 12.500000000000002 285000.00000000006 17142.000000000004 2500.5000000000005 4563.5000000000009 15322.500000000002 21367.000000000004 2100.5000000000005 18949.500000000004 616.50000000000011 742.50000000000011 225000.00000000003 285000.00000000006 -1.4999999999999998 390.50000000000006 125000.00000000001
decision_type=2 2 2 2 2 2 2 2 2 2 2 2 2 2 2 2 2 2 2 2 2 2 2 2 2 2 2 2 2 2
left_child=1 2 4 14 6 19 11 10 15 -2 -5 26 25 -8 16 -3 -4 -11 -16 21 -21 23 -22 28 -25 -12 27 -1 -6 -15
right_child=9 8 3 7 5 -7 13 -9 -10 17 12 -13 -14 29 18 -17 -18 -19 -20 20 22 -23 -24 24 -26 -27 -28 -29 -30 -31
leaf_value=-0.015860047199933471 0.054343368577940768 0.035598466623048212 -0.010013984775939407 -0.014454508877872172 0.0064284659813767606 -0.025146931436282813 -0.015879299532817952 0.0012267919100532893 0.063438754612951079 0.14613720169619746 -0.036874651903464166 0.0628033362664627 -0.028489463432761864 0.081986674361246653 -0.013657827627529843 -0.018721951625792637 0.044598979065439998 0.095493190837077344 -0.038625313333321143 -0.021705935892681993 -0.05045247914109853 -0.026894949190816721 0.014097445962854453 0.05523939603599938 0.0071344927981502708 -0.048941419371078529 0.036835766559080434 0.017449887479450494 -0.03403237624055646 -0.0025456510854855868
leaf_weight=38.189198032021523 35.370777249336243 179.01211845874786 23.91920293867588 108.73129795491695 40.639473855495453 231.54493114352226 99.197225123643875 47.601074293255806 84.488146156072617 11.809802100062369 433.0473680794239 23.943953350186348 364.077542334795 7.1887874305248243 268.84742778539658 14.077897787094114 19.512515857815742 372.61631287634373 50.068165123462677 141.76808245480061 7.678647354245185 30.067546918988228 62.094901338219643 24.469717741012573 96.663176357746124 285.38613258302212 38.636875629425049 99.852515324950218 23.748135894536972 6.5506264567375183
leaf_count=221 181 943 139 659 241 1407 587 281 418 54 2724 129 2272 42 1621 80 108 1758 312 842 46 180 365 137 573 1822 215 560 142 39
internal_value=-0.000233014 -0.0140275 -0.0199972 -0.029226 -0.00479815 -0.0117299 0.00976287 -0.0337583 0.0413174 0.0934508 -0.0351563 0.0202555 -0.0372357 -0.00887642 -0.0137301 0.031638 0.0145219 0.097049 -0.0175776 -0.00445654 -0.0122398 0.00318067 0.00699366 0.00805506 0.016852 -0.041668 0.0144893 0.0082347 -0.00849474 0.0416837
internal_weight=3270.8 2851 2573.42 1601.19 972.234 658.675 313.559 1238.84 277.578 419.797 1191.24 200.623 1082.51 112.937 362.347 193.09 43.4317 384.426 318.916 427.13 211.542 215.588 69.7735 185.521 121.133 718.434 176.679 138.042 64.3876 13.7394
internal_count=19098 17105 15664 9938 5726 3933 1793 7758 1441 1993 7477 1125 6818 668 2180 1023 247 1812 1933 2526 1253 1273 411 1093 710 4546 996 781 383 81
is_linear=0
shrinkage=0.05


Tree=5
num_leaves=31
num_cat=0
split_feature=5 7 17 5 0 17 7 15 10 16 20 10 0 21 11 9 0 12 11 8 21 19 15 11 20 17 0 20 20 19
split_gain=1472.27 306.834 190.827 59.6954 54.2218 33.3865 24.1861 18.8399 18.024 17.38 16.894 13.3211 12.1444 12.273 11.7311 14.0304 11.3432 10.8789 10.3698 10.1646 20.3846 9.84567 11.8418 21.9991 9.41756 9.04311 11.4392 9.79521 9.26519 8.90516
threshold=1.5000000000000002 1.0000000180025095e-35 1500.5000000000002 1.0000000180025095e-35 75000.000000000015 3401.0000000000005 -1.0000000180025095e-35 219.50000000000003 1.0000000180025095e-35 126317.50000000001 2242.5000000000005 1.0000000180025095e-35 135000.00000000003 354.50000000000006 18473.500000000004 1.0000000180025095e-35 355000.00000000006 4045.0000000000005 77014.500000000015 1.0000000180025095e-35 1329.5000000000002 1193.5000000000002 10000.500000000002 3963.0000000000005 5010.5000000000009 1.0000000180025095e-35 25000.000000000004 251.00000000000003 4301.5000000000009 5428.5000000000009
decision_type=2 2 2 2 2 2 2 2 2 2 2 2 2 2 2 2 2 2 2 2 2 2 2 2 2 2 2 2 2 2
left_child=1 2 3 10 19 11 7 -2 17 -7 14 16 25 -14 15 -1 -3 -6 -19 -4 -21 22 23 -13 -11 26 27 -5 -28 -10
right_child=6 5 4 12 8 9 -8 -9 29 24 -12 21 13 -15 -16 -17 -18 18 -20 20 -22 -23 -24 -25 -26 -27 28 -29 -30 -31
leaf_value=-0.0035232010377138287 0.090613044393027475 0.040283997627087294 -0.014816735888142422 0.10585780599691619 -0.022685441073317932 0.0031811203109574889 0.088846396054682961 0.002554314233910743 -0.016482231825773866 0.12843298863569522 -0.026486886816956424 -0.0041669435749096999 0.020780959228318852 -0.010066798322961725 -0.020644399312390434 0.041244019919157313 -0.035690350272086072 -0.042033897412438868 -0.032014680815500796 0.070171801729586314 -0.024372727526999493 0.085341737660527439 0.031286386681637801 0.14311537108559466 0.036423951016531633 0.0005852584562835762 0.033338853788408333 0.038300567803107817 -0.025451021379395634 0.034708473184661533
leaf_weight=436.74475878477097 10.23374952375889 119.72765508294106 359.19388127326965 9.8231819719076174 145.59641090035439 85.431734502315521 407.25804273784161 14.943108379840849 30.735257387161255 4.0679944455623618 111.228700324893 3.8917743414640409 85.198283091187477 51.876665771007538 99.983675494790077 18.23270408809185 5.1231539398431769 544.50836282968521 491.235267162323 10.64278529584408 12.278964996337889 31.159229651093483 29.350526720285416 7.2745634913444519 8.7913594990968686 20.943739652633667 76.437915056943893 11.823697015643118 7.3458152115344992 11.741150215268133
leaf_count=2605 50 629 2198 52 912 482 1856 78 183 21 685 20 466 295 608 101 29 3519 3128 58 69 153 142 36 49 114 410 62 40 71
internal_value=-2.06701e-05 -0.0131488 -0.0187624 -0.00073396 -0.0291987 0.0351303 0.0859063 0.0383479 -0.0343324 0.0113383 -0.00870166 0.0470297 0.0194141 0.00910648 -0.00513703 -0.00172921 0.0371665 -0.035483 -0.037282 -0.0127567 0.0195252 0.0642102 0.0479592 0.0917835 0.0655306 0.0305945 0.0365559 0.0689575 0.0281844 -0.00233231
internal_weight=3262.82 2830.39 2535.57 929.639 1605.93 294.818 432.435 25.1769 1223.82 98.2911 666.19 196.527 263.449 137.075 554.961 454.977 124.851 1181.34 1035.74 382.116 22.9218 71.6761 40.5169 11.1663 12.8594 126.374 105.431 21.6469 83.7837 42.4764
internal_count=19121 17137 15576 5438 10138 1561 1984 128 7813 552 3999 1009 1439 761 3314 2706 658 7559 6647 2325 127 351 198 56 70 678 564 114 450 254
is_linear=0
shrinkage=0.05


Tree=6
num_leaves=31
num_cat=0
split_feature=5 6 18 8 8 20 0 11 11 11 0 0 13 11 17 20 7 0 16 0 21 19 20 6 21 19 14 8 18 14
split_gain=1296.79 317.48 123.232 54.7735 40.7653 30.8169 25.8183 21.1202 21.0106 17.2891 15.9399 15.0955 14.638 14.5221 14.4735 13.6834 12.9597 12.1797 12.4658 15.8766 11.5434 11.5261 11.3079 10.9204 10.7034 10.3917 9.96616 12.6772 9.64066 13.8239
threshold=1.5000000000000002 1.5000000000000002 1661.5000000000002 1.0000000180025095e-35 1.0000000180025095e-35 1.0000000180025095e-35 95000.000000000015 2212.5000000000005 140.50000000000003 3785.5000000000005 25000.000000000004 65000.000000000007 287.50000000000006 106311.50000000001 3992.0000000000005 2347.5000000000005 -1.0000000180025095e-35 25000.000000000004 550.50000000000011 215000.00000000003 21525.000000000004 830.50000000000011 1443.5000000000002 3.5000000000000004 6.5000000000000009 862.50000000000011 -26.499999999999996 -1.4999999999999998 5997.5000000000009 49484.000000000007
decision_type=2 2 2 2 2 2 2 2 2 2 2 2 2 2 2 2 2 2 2 2 2 2 2 2 2 2 2 2 2 2
left_child=1 2 4 6 5 8 -4 16 12 -8 -10 -7 17 -11 24 22 -2 -1 19 -19 23 -6 28 -9 -5 -13 -12 -28 29 -3
right_child=7 15 3 14 21 11 9 20 10 13 26 25 -14 -15 -16 -17 -18 18 -20 -21 -22 -23 -24 -25 -26 -27 27 -29 -30 -31
leaf_value=0.082845205179771148 0.010649214449437002 0.036898456342876224 -0.018888980496213459 0.061200397977803883 0.020632635989929524 -0.00446583169948236 -0.01986062763040115 0.085234828885735914 0.03323881477956455 -0.042584548567487147 0.04266233308487636 -0.011173119619404747 -0.028231616701993718 -0.02918260664345116 -0.019011864462462152 0.018324489697839057 0.069121542966126867 0.0083057232276742641 -0.024930982739880033 0.043126833343861075 0.0063244110701719874 0.070360298511240413 0.066912775235964936 0.04281242582789082 0.01211953951728284 -0.028128696488370259 -0.027260900678743552 -0.00027111839910331571 -0.0094298405041139243 0.09528444551174306
leaf_weight=7.6860835105180731 16.635704755783081 153.18559131026268 380.58813452720642 14.448642209172247 31.561547711491585 237.84157247841358 174.82826541364193 385.49208070337772 22.048199191689491 498.11860823631287 8.0379246920347196 161.82223293185234 16.363772615790367 340.16754984855652 29.526395484805107 72.641934111714363 22.018709555268288 76.829120740294456 14.99565516412258 57.037390723824501 4.8960416764020911 18.473136022686958 41.377421781420708 15.791476905345915 48.043658062815666 204.64237155020237 90.476298183202744 83.808825582265854 10.159403815865515 10.856514573097227
leaf_count=41 87 766 2397 77 170 1422 1113 1705 128 3325 49 987 93 2202 169 374 101 422 85 308 22 96 206 69 273 1277 549 503 52 53
internal_value=-4.02686e-05 -0.0126158 -0.0183071 -0.0275254 -0.005031 -0.00727501 -0.0299922 0.0792734 0.00393728 -0.0341633 -0.00691592 -0.0142751 0.0167651 -0.0371462 0.00983689 0.0370923 0.0439568 0.0214685 0.0182995 0.0231422 0.0826344 0.0389924 0.0434163 0.0835654 0.0234674 -0.0206415 -0.0117718 -0.0142823 0.0378353 0.0407625
internal_weight=3250.4 2805.57 2517.35 1485.72 1031.62 981.589 1393.7 444.834 377.283 1013.11 204.371 604.306 172.912 838.286 92.0187 288.221 38.6544 156.548 148.862 133.867 406.18 50.0347 215.579 401.284 62.4923 366.465 182.323 174.285 174.202 164.042
internal_count=19121 17137 15686 9556 6130 5864 9037 1984 2178 6640 1229 3686 949 5527 519 1451 188 856 815 730 1796 266 1077 1774 350 2264 1101 1052 871 819
is_linear=0
shrinkage=0.05


Tree=7
num_leaves=31
num_cat=0
split_feature=6 8 18 0 10 0 11 0 17 4 12 6 10 19 14 16 11 0 10 7 11 11 17 9 12 18 18 19 18 0
split_gain=917.096 122.4 98.1011 45.5159 42.8389 29.1096 26.8178 22.058 17.2848 16.6577 15.0449 14.0424 13.6313 13.5177 14.5621 13.2015 12.8071 12.6967 12.3441 12.3066 17.2176 12.1627 12.0934 10.8452 10.723 12.707 10.051 10.0009 10.8479 9.98348
threshold=1.5000000000000002 1.0000000180025095e-35 1999.5000000000002 145000.00000000003 1.0000000180025095e-35 25000.000000000004 781.00000000000011 135000.00000000003 5114.0000000000009 60.500000000000007 219086.50000000003 3.5000000000000004 1.0000000180025095e-35 1.0000000180025095e-35 1.0000000180025095e-35 1.0000000180025095e-35 1357.0000000000002 225000.00000000003 1.0000000180025095e-35 -1.0000000180025095e-35 2779.5000000000005 229241.50000000003 3000.5000000000005 1.0000000180025095e-35 130305.00000000001 4977.5000000000009 176.50000000000003 996.50000000000011 2484.0000000000005 275000.00000000006
decision_type=2 2 2 2 2 2 2 2 2 2 2 2 2 2 2 2 2 2 2 2 2 2 2 2 2 2 2 2 2 2
left_child=1 2 5 23 19 18 8 -8 9 13 12 -6 16 14 -7 -15 -5 -17 26 20 -2 -9 -3 24 25 -4 -1 -24 -29 -18
right_child=4 22 3 10 11 6 7 21 -10 -11 -12 -13 -14 15 -16 17 29 -19 -20 -21 -22 -23 27 -25 -26 -27 -28 28 -30 -31
leaf_value=0.038299078044687053 0.049656104720830506 0.04021517523587384 -0.011520201594451586 -0.016924687614167395 0.074434220703938375 0.010270159633526088 -0.0056901405716304034 -0.025656199554688921 -0.045721624481461547 0.094512215428845733 -0.01281052304744993 0.028044434237947388 0.008372569674188984 -0.036292970592832513 0.079384417325121914 0.013275884602472263 -0.032989001464128635 -0.021882643653626167 0.071679491584140095 0.047631736879357629 -0.014125325195410252 0.069670519484688359 -0.0018875424938472039 0.026724391740249279 0.021894919118920095 -0.02999008372735661 0.0049150861060913952 0.065253042931120081 0.0011081340744477409 -0.045923445089057956
leaf_weight=29.72343572974205 21.958074539899826 96.051261082291603 373.83062225580215 79.945960879325867 233.40101447701454 181.72756524384022 360.48787261545658 272.03101859986782 17.092878699302673 5.211756467819213 88.502147048711777 17.538890048861504 17.944493547081947 30.630877882242203 7.9549340456724158 72.079479947686195 371.23722147941589 39.889223948121071 9.6578271389007551 313.0465026050806 20.421334162354469 3.3877783119678488 43.468189880251884 16.294428035616875 19.266975492238998 124.0147351026535 93.369932994246483 14.950777992606165 11.787906333804129 249.41546645760536
leaf_count=164 113 503 2342 500 1026 1008 2167 1723 104 27 567 77 108 180 45 430 2484 242 52 1476 107 21 240 95 120 812 544 76 65 1703
internal_value=-5.63691e-05 -0.0128368 -0.0156389 -0.0247721 0.0553754 -0.00473951 -0.00768627 -0.0138298 0.00333143 0.0058158 -0.0322626 0.0711919 -0.0346584 0.00442462 0.0131687 -0.00720653 -0.0357606 0.000750542 0.0172471 0.0442085 0.0189218 -0.0244836 0.0286862 -0.0134391 -0.0147047 -0.0161211 0.0129763 0.0129132 0.0369744 -0.0381868
internal_weight=3236.32 2629.95 2463.7 1340.45 606.366 1123.24 990.493 635.907 354.587 337.494 807.045 250.94 718.543 332.282 189.682 142.6 700.599 111.969 132.751 355.426 42.3794 275.419 166.258 533.407 517.112 497.845 123.093 70.2069 26.7387 620.653
internal_count=19121 16322 15438 8731 2799 6707 5947 3911 2036 1932 5362 1103 4795 1905 1053 852 4687 672 760 1696 220 1744 884 3369 3274 3154 708 381 141 4187
is_linear=0
shrinkage=0.05


Tree=8
num_leaves=31
num_cat=0
split_feature=5 6 18 8 8 20 10 11 11 22 9 19 10 17 7 19 16 17 11 18 7 12 16 11 12 19 22 22 9 8
split_gain=1078.43 250.861 108.099 46.0283 32.5818 27.2679 20.01 17.6193 17.3958 16.55 14.3477 17.8837 14.1328 13.5011 13.3449 13.2982 12.3852 11.6794 11.5458 10.385 10.2988 9.49061 9.21217 8.98327 8.97185 8.6176 8.35412 8.28908 9.45223 8.18107
threshold=1.5000000000000002 1.5000000000000002 1661.5000000000002 1.0000000180025095e-35 1.0000000180025095e-35 1.0000000180025095e-35 1.0000000180025095e-35 2212.5000000000005 140.50000000000003 2030.5000000000002 1.0000000180025095e-35 3195.5000000000005 -1.4999999999999998 3361.0000000000005 1.5000000000000002 4950.5000000000009 -197.99999999999997 3992.0000000000005 781.00000000000011 16.500000000000004 -1.0000000180025095e-35 10596.500000000002 1498.0000000000002 6076.0000000000009 204195.50000000003 830.50000000000011 8316.0000000000018 926.00000000000011 1.0000000180025095e-35 -1.4999999999999998
decision_type=2 2 2 2 2 2 2 2 2 2 2 2 2 2 2 2 2 2 2 2 2 2 2 2 2 2 2 2 2 2
left_child=1 2 4 6 5 8 9 20 13 18 11 26 -7 19 16 -14 -10 27 -4 22 -2 -16 -1 -9 -11 -6 -3 -5 -29 -18
right_child=7 10 3 17 25 12 -8 23 14 24 -12 -13 15 -15 21 -17 29 -19 -20 -21 -22 -23 -24 -25 -26 -27 -28 28 -30 -31
leaf_value=0.024811078443143678 0.0093227972475450338 0.033323940321233148 -0.0007108685586291588 0.043000939706967035 0.01804535992196888 -0.035603137018628606 0.0043016488427306925 0.1027154445110114 0.061148012391933085 -0.036187906397442349 0.047209941866302826 -0.0065557756667074009 -0.0078689606123833172 -0.063796653298333186 0.079250078846102467 -0.032513253619202119 -0.021721327988897796 -0.018251513374494172 -0.02518509623953083 -0.020716989491688695 0.060871193517393389 -0.011604367671201271 -0.02684754567824528 0.072023926477304989 -0.019177105815789856 0.060094137202882696 -0.026359044434938333 -0.014363523044514671 0.034865198304479025 -0.00061594178577740978
leaf_weight=144.67200051248074 16.818280592560768 156.94211773574352 53.424085274338722 24.177965685725212 32.244724825024605 63.996608346700668 45.51029446721077 25.375717177987099 6.0146711915731421 668.44270202517509 96.920190781354904 39.10595029592514 470.68832157552242 5.2316358238458625 7.5233794897794706 61.9429662078619 97.309868708252907 29.21585139632225 491.76538479328156 15.89911901950836 22.858866423368454 4.6515115350484848 9.1775831729173643 394.40027913451195 87.680025085806847 19.586186081171036 6.0908144116401663 23.621940091252327 16.604973629117012 86.937861427664757
leaf_count=775 87 775 335 130 170 408 282 107 36 4570 441 203 2887 31 40 391 601 169 3269 91 101 26 52 1689 581 96 32 133 87 526
internal_value=-6.7404e-05 -0.0118531 -0.0170971 -0.0259311 -0.00469323 -0.00674872 -0.0282876 0.070869 0.00376961 -0.0294273 0.0313938 0.0238104 -0.0134024 0.0153156 -0.00621038 -0.010735 -0.0094578 0.00796921 -0.0227868 0.0177538 0.0390209 0.0445384 0.0217295 0.0738792 -0.0342153 0.033935 0.0310942 0.0198637 0.00595724 -0.0117627
internal_weight=3224.83 2765.38 2466.32 1440.44 1025.88 974.046 1346.82 459.453 377.418 1301.31 299.059 202.139 596.628 174.98 202.437 532.631 190.262 93.6207 545.189 169.749 39.6771 12.1749 153.85 419.776 756.123 51.8309 163.033 64.4049 40.2269 184.248
internal_count=19121 17137 15686 9556 6130 5864 9037 1984 2178 8755 1451 1010 3686 949 1229 3278 1163 519 3604 918 188 66 827 1796 5151 266 807 350 220 1127
is_linear=0
shrinkage=0.05


Tree=9
num_leaves=31
num_cat=0
split_feature=6 9 17 21 10 18 7 7 12 6 7 18 7 17 22 22 12 10 16 7 13 15 16 4 18 15 15 16 4 16
split_gain=729.124 93.2568 85.7443 40.9271 34.6169 16.4105 15.9151 15.2098 12.1359 12.0605 11.1758 10.4541 10.2594 14.2839 9.68443 9.29493 8.60608 8.49845 8.35154 8.31989 21.1446 8.12991 7.70298 7.43781 7.32556 11.6668 7.27965 14.9976 9.61527 7.69877
threshold=1.5000000000000002 1.0000000180025095e-35 3700.5000000000005 1000.5000000000001 1.0000000180025095e-35 6305.0000000000009 1.5000000000000002 1.5000000000000002 327957.00000000006 3.5000000000000004 1.5000000000000002 13000.500000000002 1.5000000000000002 1.0000000180025095e-35 883.50000000000011 1.0000000180025095e-35 105656.50000000001 1.0000000180025095e-35 1001.5000000000001 -1.0000000180025095e-35 489.00000000000006 3437.5000000000005 64247.000000000007 45.500000000000007 3600.5000000000005 29064.500000000004 390.50000000000006 325.50000000000006 60.500000000000007 19554.500000000004
decision_type=2 2 2 2 2 2 2 2 2 2 2 2 2 2 2 2 2 2 2 2 2 2 2 2 2 2 2 2 2 2
left_child=1 2 3 5 12 10 14 8 11 18 24 15 13 19 -5 -4 -17 -18 -6 20 -2 -20 -11 -10 26 -26 28 -28 -1 -29
right_child=4 -3 7 6 9 -7 -8 -9 23 22 -12 -13 -14 -15 -16 16 17 -19 21 -21 -22 -23 -24 -25 25 -27 27 29 -30 -31
leaf_value=0.0037035459265489 0.063135962502739132 0.029321791677237252 -0.011624595407799414 -0.0060121298609007168 0.015378876294865501 -0.030099686390619614 0.031881391656619643 -0.0012148206413918436 0.019427752986114408 0.0032899800333575716 0.02711763102976468 -0.042802358303385774 0.046261629272927096 0.0013978376010039756 -0.020555557098237236 -0.034611979224004191 -0.023990673653071545 0.030181725559675788 0.098522895452379397 0.044394165667361436 -0.015592392530383898 0.064250748751156161 0.07767022831785414 -0.040747561995244125 0.012688681249372103 0.10596713438689094 -0.024199657512546439 0.0036316986150877343 0.075020201640299614 -0.014653083001841649
leaf_weight=346.58593758940697 14.294117107987402 130.84609691798687 86.968251630663872 146.57805241644382 8.1020289212465268 42.776186212897301 16.815152898430824 55.804665267467499 20.664014816284183 13.252098858356478 40.9690882563591 121.69115051627159 195.99121010303497 35.762706995010376 522.51222535967827 323.62176275253296 258.74384914338589 7.4481559246778479 18.823369115591049 99.004362002015114 21.144343867897987 214.35817152261734 4.7208199501037589 6.8331638127565375 27.940539643168453 3.8091980367898932 82.410677850246429 261.55211921036243 4.7916251718997946 73.814835920929909
leaf_count=2003 68 686 568 912 36 283 93 332 133 57 221 863 876 176 3416 2218 1731 45 79 465 111 911 20 44 181 23 511 1584 24 451
internal_value=-7.84509e-05 -0.0118066 -0.0140011 -0.00699565 0.04836 0.000111493 -0.0161621 -0.0264787 -0.0281856 0.0623401 0.00164654 -0.0293103 0.0384626 0.0294819 -0.0173695 -0.0268843 -0.0291343 -0.0224749 0.0652834 0.0369525 0.0161627 0.0670173 0.0228269 0.00447394 0.000343608 0.0238798 -0.000627937 -0.00508894 0.00467607 -0.000392813
internal_weight=3208.63 2583.18 2452.33 1570.56 625.453 884.65 685.905 881.775 825.97 259.256 841.874 798.473 366.197 170.206 669.09 676.782 589.814 266.192 241.284 134.443 35.4385 233.182 17.9729 27.4972 800.905 31.7497 769.155 417.778 351.378 335.367
internal_count=19121 16322 15636 9702 2799 5281 4421 5934 5602 1103 4998 5425 1696 820 4328 4562 3994 1776 1026 644 179 990 77 177 4777 204 4573 2546 2027 2035
is_linear=0
shrinkage=0.05


Tree=10
num_leaves=31
num_cat=1
split_feature=5 5 18 8 9 9 22 20 7 12 19 7 19 12 17 19 19 20 16 20 6 18 18 15 3 22 13 19 21 20
split_gain=977.605 191.711 74.4662 33.5581 31.2607 30.5808 16.6423 15.2212 16.0404 13.4613 13.4377 13.2089 12.6572 15.3769 12.3424 12.121 11.8584 10.9504 9.11221 17.9127 8.48462 8.42677 8.29714 7.96347 7.51925 8.23725 7.32032 9.26365 7.21759 7.10985
threshold=1.0000000180025095e-35 1.5000000000000002 1661.5000000000002 1.0000000180025095e-35 1.0000000180025095e-35 1.0000000180025095e-35 2999.0000000000005 2242.5000000000005 1.5000000000000002 16865.000000000004 3057.5000000000005 -1.0000000180025095e-35 4668.0000000000009 302884.50000000006 1500.5000000000002 2654.5000000000005 15265.000000000002 1055.5000000000002 9053.0000000000018 455.50000000000006 1.5000000000000002 4977.5000000000009 5997.5000000000009 43766.000000000007 0 6999.5000000000009 287.50000000000006 147.50000000000003 21525.000000000004 17757.500000000004
decision_type=2 2 2 2 2 2 2 2 2 2 2 2 2 2 2 2 2 2 2 2 2 2 2 2 9 2 2 2 2 2
left_child=2 5 4 12 7 6 10 8 14 18 15 17 24 -14 26 29 -15 -3 19 -10 -9 -5 -7 -11 -4 -26 27 -1 -13 -2
right_child=1 11 3 21 -6 22 -8 20 9 23 -12 28 13 16 -16 -17 -18 -19 -20 -21 -22 -23 -24 -25 25 -27 -28 -29 -30 -31
leaf_value=-0.004973052158375766 0.018366961115905821 0.051203150230091365 -0.027880265319741828 0.014743615172806691 0.031256502147290005 0.048661627814661809 -0.010295003717322119 -0.02639350969594656 0.039803444690810673 -0.022807945583512245 -0.014183142096577513 0.067789998516868427 -0.035861278933463553 0.019447933412292097 -0.018797415554449956 0.079302322795221716 -0.054174421818025523 -0.018492314788459079 0.068106679955602697 -0.035458084423081231 0.039781458614789322 -0.014958341741969753 -0.0015259650198787408 0.054904385404921444 -0.020430200526266068 0.0064110852567359393 0.0015921384876343059 -0.03175307430630632 0.014484277412982929 0.07974657827982233
leaf_weight=125.14397232234478 258.39680774509907 19.932316511869434 432.40403711795807 59.121839866042137 50.986621737480164 91.821818634867668 63.109728053212166 136.18729685246944 28.061222493648529 24.754009023308758 29.377969354391098 441.03021875023842 469.70101054012775 22.25181803107262 205.23679645359516 8.7512342780828458 7.2520371228456488 7.857607126235961 12.195874422788618 11.007090970873831 5.0224170237779608 40.060674905776978 9.0465973615646345 3.8030327558517447 318.2851557135582 31.403706610202789 250.39248126745224 43.523229897022247 6.4429278969764701 4.805678889155387
leaf_count=737 1335 94 2956 314 257 407 351 878 143 140 170 1845 3328 147 1310 45 49 40 65 59 25 230 42 23 2174 221 1520 270 28 27
internal_value=-0.000271801 0.0426094 -0.0179866 -0.0252728 -0.00676451 0.0197958 0.0130523 -0.00905778 -0.00605315 0.0150521 0.0179421 0.0649452 -0.0274417 -0.0336619 -0.00875162 0.0214124 0.00135158 0.0314967 0.0303772 0.0185993 -0.0240399 0.00274674 0.0441604 -0.0124587 -0.0234714 -0.0180197 -0.00383164 -0.0118834 0.0670225 0.0194877
internal_weight=3217.37 940.573 2276.79 1380.48 896.314 465.31 364.441 845.327 704.118 79.8212 301.332 475.263 1281.3 499.205 624.296 271.954 29.5039 27.7899 51.2642 39.0683 141.21 99.1825 100.868 28.557 782.093 349.689 419.06 168.667 447.473 263.202
internal_count=19230 4384 14846 9419 5427 2377 1928 5170 4267 430 1577 2007 8875 3524 3837 1407 196 134 267 202 903 544 449 163 5351 2395 2527 1007 1873 1362
cat_boundaries=0 1
cat_threshold=4
is_linear=0
shrinkage=0.05


Tree=11
num_leaves=31
num_cat=0
split_feature=5 5 19 8 9 9 0 17 12 0 4 22 0 12 0 4 20 12 22 4 0 0 21 0 4 16 9 12 20 12
split_gain=879.406 169.763 67.1422 27.9708 27.0312 24.4433 21.0558 17.749 19.9723 18.4198 15.3415 14.8731 13.7417 14.6494 13.1071 12.0864 12.0448 11.7452 11.3706 12.286 11.3127 10.7392 10.2291 10.2031 10.0787 9.75338 9.44934 9.32827 9.18198 11.7271
threshold=1.0000000180025095e-35 1.5000000000000002 2860.0000000000005 1.0000000180025095e-35 1.0000000180025095e-35 1.0000000180025095e-35 13000.000000000002 445.50000000000006 316.50000000000006 75000.000000000015 45.500000000000007 2999.0000000000005 145000.00000000003 302884.50000000006 45000.000000000007 49.500000000000007 29661.000000000004 5153.5000000000009 1007.5000000000001 44.500000000000007 265000.00000000006 375000.00000000006 1800.5000000000002 315000.00000000006 56.500000000000007 24756.000000000004 -1.4999999999999998 1744.0000000000002 1.0000000180025095e-35 47797.000000000007
decision_type=2 2 2 2 2 2 2 2 2 2 2 2 2 2 2 2 2 2 2 2 2 2 2 2 2 2 2 2 2 2
left_child=2 4 3 6 11 12 -1 8 10 28 23 14 16 27 -2 18 22 26 19 -5 -10 -15 25 -8 -16 -4 -11 -14 -9 -30
right_child=1 -3 5 15 -6 -7 7 9 20 17 -12 -13 13 21 24 -17 -18 -19 -20 -21 -22 -23 -24 -25 -26 -27 -28 -29 29 -31
leaf_value=0.029550617395560277 0.036791406643415507 0.060943331956607893 -0.015583166100369368 0.023260605642312887 0.041404946701586946 0.0089250331847808666 -0.021433323922501 0.0098927717446631504 0.028112720415394699 -0.028722112150839342 0.022244091335651053 -0.0098331211517854681 -0.016040054473807984 0.041247291022334279 0.0096342195438494718 -0.035498686777493557 0.07440864170105517 -0.028421256330401448 0.00062343194087103454 0.093305087219871824 -0.027105658610262803 -0.021667740936690213 -0.028387143805023936 0.013300122411810764 0.068739043303689573 0.028512896202248034 -0.004412786802068947 -0.038295351716997557 -0.016832670187971063 0.004797712058574057
leaf_weight=28.678247585892677 65.077623814344406 480.98508642613888 56.795179590582848 53.673511430621147 102.16355077922344 42.025391310453415 147.37955921888351 54.902256041765213 61.945137217640877 60.617578223347664 30.09654638171196 62.779070049524307 51.997483551502228 10.210851863026621 231.26481875777245 12.459361985325812 3.3258831799030295 355.92312461137772 59.070595219731331 7.087044194340705 10.909074872732161 20.202273547649384 162.66869115829468 24.684885576367378 7.4448880851268759 16.093190044164658 117.3934885263443 498.28108508884907 283.07513207197189 80.475525945425034
leaf_count=167 314 2007 367 274 449 238 904 328 346 398 179 351 351 67 1227 66 23 2486 326 36 66 135 1130 149 36 106 766 3639 1774 525
internal_value=-0.000271344 0.0400749 -0.0173015 -0.0104973 0.0186608 -0.0282658 -0.0128005 -0.01379 -0.00260096 -0.017021 -0.0106898 0.0123219 -0.0301728 -0.0343254 0.0169003 0.011371 -0.0200785 -0.0231768 0.0162442 0.0314305 0.0198444 -0.000544753 -0.0214126 -0.0164504 0.0114776 -0.0058471 -0.0126908 -0.0361924 -0.00916633 -0.0120446
internal_weight=3199.69 949.715 2249.97 1388.37 468.73 861.6 1256.08 1227.4 275.015 952.387 202.161 366.566 819.575 580.692 303.787 132.291 238.883 533.934 119.831 60.7606 72.8542 30.4131 235.557 172.064 238.71 72.8884 178.011 550.279 418.453 363.551
internal_count=19230 4384 14846 8790 2377 6056 8088 7921 1644 6277 1232 1928 5818 4192 1577 702 1626 3650 636 310 412 202 1603 1053 1263 473 1164 3990 2627 2299
is_linear=0
shrinkage=0.05


Tree=12
num_leaves=31
num_cat=1
split_feature=5 5 18 0 9 9 11 11 12 8 0 22 0 20 11 0 20 8 19 0 19 19 4 0 4 19 15 11 1 12
split_gain=792.001 150.92 66.7698 29.8551 26.4745 23.9431 21.2869 18.94 18.3874 16.0751 14.5445 13.3073 13.262 12.2169 16.2067 19.1679 19.8201 12.4086 17.7851 14.0918 11.7809 10.3559 10.1748 9.8684 9.0655 7.88968 7.71068 7.58362 7.51855 7.48652
threshold=1.0000000180025095e-35 1.5000000000000002 1661.5000000000002 145000.00000000003 1.0000000180025095e-35 1.0000000180025095e-35 3785.5000000000005 535.50000000000011 302884.50000000006 1.0000000180025095e-35 13000.000000000002 2999.0000000000005 345000.00000000006 2242.5000000000005 8306.0000000000018 85000.000000000015 1550.5000000000002 -1.4999999999999998 390.50000000000006 225000.00000000003 3057.5000000000005 2654.5000000000005 37.500000000000007 45000.000000000007 40.500000000000007 1.0000000180025095e-35 117652.50000000001 140970.50000000003 0 1.0000000180025095e-35
decision_type=2 2 2 2 2 2 2 2 2 2 2 2 2 2 2 2 2 2 2 2 2 2 2 2 2 2 2 2 1 2
left_child=2 5 4 9 10 11 28 22 25 -4 -1 20 -10 14 17 16 -16 29 19 -19 21 23 -3 -2 -25 26 -8 -27 -5 -12
right_child=1 7 3 6 -6 -7 8 -9 12 -11 13 -13 -14 -15 15 -17 -18 18 -20 -21 -22 -23 -24 24 -26 27 -28 -29 -30 -31
leaf_value=0.029497668570567671 0.035037753625876134 -0.031051439831217439 -0.018318714867609595 -0.0032884533392424963 0.028665638844949232 0.038875351577558649 -0.02143799878044509 0.059096283663840926 0.059289721169506288 0.0072484372344174298 -0.00093851512012329522 -0.0093900291927752899 -0.015613962729210715 -0.0229547015937238 -0.010919073278804155 -0.032935757109899259 0.046624419000959927 0.037897683949787139 -0.0032711729494640379 -0.010518135620232292 -0.014177254714449611 0.071549554660549422 0.05165266033915468 0.0056705065291579159 0.029104212537760927 -0.04166156765388894 0.053665526107246814 -0.029019848973888668 -0.028982591064041427 -0.022698886841541383
leaf_weight=24.889802098274231 60.880348414182663 9.1044058799743635 522.78654290735722 85.721607193350792 51.868766501545906 103.33910809457302 31.164470076560974 470.3793016821146 7.8260858356952694 69.672918066382408 94.913375586271286 62.462664291262627 24.128375202417374 136.3571352660656 181.22603818774223 101.107705950737 16.311002135276794 63.321630850434303 128.78584721684456 19.706176623702049 29.365310326218605 9.1118819266557676 6.2868517786264411 149.65473553538322 56.987305030226707 377.0261228531599 3.8384593427181235 173.09884940087795 42.630271658301353 67.734002292156219
leaf_count=142 288 42 3587 591 257 449 211 1936 50 370 559 351 162 896 1112 668 98 359 787 118 170 45 29 782 292 2871 23 1256 298 431
internal_value=-0.000270656 0.037748 -0.0166392 -0.0236901 -0.00599484 0.0176065 -0.0303489 0.0573104 -0.0342023 -0.015312 -0.00814956 0.0116414 0.00273098 -0.00930716 -0.00654245 -0.0152301 -0.0061676 0.000386225 0.00836202 0.0264065 0.0159344 0.0191309 0.00273062 0.0173455 0.012133 -0.0362193 -0.0132021 -0.0376838 -0.0118224 -0.0100006
internal_weight=3181.69 957.572 2224.12 1337.89 886.221 471.801 745.434 485.771 617.082 592.459 834.353 368.462 31.9545 809.463 673.106 298.645 197.537 374.461 211.814 83.0278 306 276.634 15.3913 267.522 206.642 585.128 35.0029 550.125 128.352 162.647
internal_count=19230 4384 14846 9419 5427 2377 5462 2007 4573 3957 5170 1928 212 5028 4132 1878 1210 2254 1264 477 1577 1407 71 1362 1074 4361 234 4127 889 990
cat_boundaries=0 1
cat_threshold=4
is_linear=0
shrinkage=0.05


Tree=13
num_leaves=31
num_cat=0
split_feature=5 5 18 8 9 10 11 20 11 8 18 19 12 19 16 19 21 21 4 17 14 4 11 18 4 8 16 20 14 18
split_gain=714.148 134.88 62.1969 27.0486 23.7657 22.6814 16.8402 12.6382 17.6521 14.5861 12.1055 11.4458 13.0261 11.0134 10.7334 10.5001 10.4257 10.3961 9.8499 9.67296 9.50491 9.11389 8.31057 9.23647 8.06661 7.93151 18.1738 8.86932 7.76228 9.11919
threshold=1.0000000180025095e-35 1.5000000000000002 1661.5000000000002 1.0000000180025095e-35 1.0000000180025095e-35 1.0000000180025095e-35 535.50000000000011 2242.5000000000005 8306.0000000000018 -1.4999999999999998 5900.5000000000009 4668.0000000000009 302884.50000000006 371.50000000000006 12254.000000000002 15265.000000000002 300.50000000000006 600.50000000000011 56.500000000000007 1720.5000000000002 1521.0000000000002 37.500000000000007 4935.5000000000009 7142.0000000000009 52.500000000000007 -1.0000000180025095e-35 1060.5000000000002 700.50000000000011 3565.5000000000005 2189.0000000000005
decision_type=2 2 2 2 2 2 2 2 2 2 2 2 2 2 2 2 2 2 2 2 2 2 2 2 2 2 2 2 2 2
left_child=2 5 4 11 7 18 21 8 9 -1 24 22 -13 16 -10 -14 19 -16 25 -11 -20 -3 23 -4 -7 26 27 -2 -5 -30
right_child=1 6 3 28 -6 10 -8 -9 14 13 -12 12 15 -15 17 -17 -18 -19 20 -21 -22 -23 -24 -25 -26 -27 -28 -29 29 -31
leaf_value=-0.0095130738138476476 0.015654668809940826 -0.029827361017131668 -0.0018084652928291958 0.047134937239713598 0.026901314226604713 0.039917021223867678 0.055708466403496006 -0.021752123382235089 -0.023460074721080217 -0.0060133950379743055 -0.017737030032051002 -0.033219298902767778 0.017479146444585324 0.0025712062585798411 0.027080598002922302 -0.052989635123120521 0.044377686421729151 -0.010092231014718522 0.10324454765013985 0.060862270955169877 0.0082081346941377357 0.048236617714336835 -0.023532185250688318 -0.031863225005060163 0.10473678345859057 0.017177855566020372 -0.024806490125229314 -0.025664801630176055 0.03930852700072849 -0.0082144242549856954
leaf_weight=162.41706137359142 125.96446251869202 9.0066699832677823 97.284251928329468 8.7526174634695035 52.490450158715248 83.844990476965904 473.93764400482178 135.59795391559601 152.72329910099506 28.696920841932297 8.8352988660335523 439.33262990415096 22.687467649579052 155.98828254640102 22.045845285058022 6.8919832110404959 37.720228314399719 128.0953202098608 5.6073786914348585 6.6624169349670401 4.956424668431282 6.3926175832748404 616.17470218241215 34.67501699924469 5.0911678969860068 179.71326869726181 46.03247232735157 14.480324223637579 11.566584050655363 79.322184264659882
leaf_count=994 661 42 670 47 257 361 1936 903 971 163 41 3328 147 941 133 49 214 814 26 37 24 29 4438 243 22 878 277 87 59 438
internal_value=-0.000268997 0.0356176 -0.0159979 -0.0228817 -0.0057265 0.0166239 0.0540365 -0.00779006 -0.00506345 0.00194861 0.0380823 -0.0249323 -0.0310569 0.0100753 -0.0141273 0.00105999 0.0260929 -0.00463399 0.0110552 0.00658734 0.0586545 0.00257889 -0.0210935 -0.00970597 0.0436276 0.00968207 0.00245817 0.0113945 0.00216409 -0.00216661
internal_weight=3162.99 963.863 2199.13 1316.69 882.438 474.526 489.337 829.947 694.349 391.485 97.7715 1217.05 468.912 229.068 302.864 29.5795 73.0796 150.141 376.754 35.3593 10.5638 15.3993 748.134 131.959 88.9362 366.191 186.477 140.445 99.6414 90.8888
internal_count=19230 4384 14846 9419 5427 2377 2007 5170 4267 2349 424 8875 3524 1355 1918 196 414 947 1953 200 50 71 5351 913 383 1903 1025 748 544 497
is_linear=0
shrinkage=0.05


Tree=14
num_leaves=31
num_cat=0
split_feature=6 19 10 19 0 14 11 0 12 11 10 16 11 11 0 10 7 11 4 19 11 20 11 6 19 22 12 14 14 15
split_gain=440.765 76.4685 28.2506 26.5866 31.3244 27.152 28.009 26.3293 21.3698 17.5716 14.8286 13.508 11.9658 15.2931 12.7515 11.627 11.4274 11.3957 10.9907 10.884 10.3341 10.1914 10.1629 10.0743 10.0949 9.61482 9.43784 9.0279 8.97637 8.45101
threshold=1.5000000000000002 2860.0000000000005 1.0000000180025095e-35 1.0000000180025095e-35 65000.000000000007 1.0000000180025095e-35 1.0000000180025095e-35 145000.00000000003 219086.50000000003 837.00000000000011 1.0000000180025095e-35 307.50000000000006 6742.5000000000009 87311.500000000015 145000.00000000003 1.0000000180025095e-35 1.5000000000000002 1357.0000000000002 49.500000000000007 2015.5000000000002 26218.500000000004 29661.000000000004 132866.00000000003 3.5000000000000004 11727.000000000002 2999.0000000000005 93405.000000000015 8597.0000000000018 55146.000000000007 128559.50000000001
decision_type=2 2 2 2 2 2 2 2 2 2 2 2 2 2 2 2 2 2 2 2 2 2 2 2 2 2 2 2 2 2
left_child=1 3 16 5 10 6 11 15 17 -7 28 18 -6 14 -14 21 -2 -9 -1 -15 27 -3 26 24 -4 -24 -21 -12 -5 -19
right_child=2 7 23 4 12 9 -8 8 -10 -11 20 -13 13 19 -16 -17 -18 29 -20 22 -22 -23 25 -25 -26 -27 -28 -29 -30 -31
leaf_value=0.014604838102723389 0.017785143335432546 -0.013636397880934296 0.052251889285001379 -0.0020810947174270187 -0.0072766111622888738 0.061785485118164424 -0.014332703002704722 -0.010478769485500776 -0.0040898356018235016 0.016213700409719957 -0.0073649236295211867 -0.016646127987541569 -0.016631803292132118 -0.015587609944155915 -0.037668517030314853 0.021385919879404643 0.035111094270251247 -0.037644128057925184 0.060740000648103011 0.047045202242580679 -0.011066071775422282 0.075213881495217863 0.13882165309132952 0.011481513385852647 -0.010098961031740765 0.018661936565780326 -0.030140140723410293 0.05698096278150995 0.04977791002539151 -0.021412431437930785
leaf_weight=141.44385159015656 174.558763474226 252.69829348474741 253.08392083644867 409.25097313523293 261.62436802685261 25.890485882759094 195.39532870054245 57.91354364156723 83.196204960346222 115.58327975124121 6.8865430057048789 32.453561142086983 161.20696543157101 33.45037180185318 130.22667340934277 28.089754864573479 209.24936224520206 358.07178496569395 14.20581506192684 7.7469934076070812 11.727435722947119 3.2691876143217078 3.4688895344734183 17.521558403968811 6.6625700742006293 3.2010812908411026 8.1027367785572988 26.151923432946205 8.5180217474699003 103.33105630427599
leaf_count=755 814 1730 1038 2509 1684 139 1260 390 569 635 35 189 1078 234 968 154 898 2782 68 55 69 22 24 72 28 24 59 134 51 763
internal_value=-0.000265708 -0.00992506 0.0360163 -0.00338652 -0.0079027 0.00583182 -0.00107469 -0.0216997 -0.027616 0.0245536 0.00190685 0.0126973 -0.0153527 -0.0214347 -0.026032 -0.00915055 0.0272311 -0.031385 0.0188155 0.00250357 0.0292559 -0.0125016 0.0293759 0.0481772 0.0506526 0.0811541 0.00758633 0.0435687 -0.00102373 -0.034009
internal_weight=3144.18 2483.11 661.076 1596.54 1071.56 524.972 383.499 886.57 602.513 141.474 462.535 188.103 609.028 347.404 291.434 284.057 383.808 519.316 155.65 55.9701 44.7659 255.967 22.5197 277.268 259.746 6.66997 15.8497 33.0385 417.769 461.403
internal_count=19230 16380 2850 9970 6924 3046 2272 6410 4504 774 2798 1012 4126 2442 2046 1906 1712 3935 823 396 238 1752 162 1138 1066 48 114 169 2560 3545
is_linear=0
shrinkage=0.05


Tree=15
num_leaves=31
num_cat=0
split_feature=5 7 22 0 11 6 21 0 11 19 12 11 9 14 0 8 16 16 11 6 11 11 19 21 0 11 18 14 0 0
split_gain=551.779 117.806 79.0655 34.9733 23.3873 23.7053 17.706 15.8287 13.9639 12.4832 11.528 13.4225 9.80911 9.26696 11.2787 8.92502 8.45854 8.39183 10.3041 8.36616 7.57641 12.2824 7.53806 7.51373 7.2955 7.28508 7.34361 8.86498 8.07629 8.09199
threshold=1.5000000000000002 1.0000000180025095e-35 883.50000000000011 75000.000000000015 488.00000000000006 1.0000000180025095e-35 6.5000000000000009 55000.000000000007 908.00000000000011 1.0000000180025095e-35 3685.5000000000005 77014.500000000015 1.0000000180025095e-35 163147.50000000003 75000.000000000015 1.0000000180025095e-35 1.0000000180025095e-35 19002.500000000004 51211.000000000007 3.5000000000000004 106311.50000000001 8999.5000000000018 600.50000000000011 14368.500000000002 495000.00000000006 389.50000000000006 200.50000000000003 417.00000000000006 185000.00000000003 25000.000000000004
decision_type=2 2 2 2 2 2 2 2 2 2 2 2 2 2 2 2 2 2 2 2 2 2 2 2 2 2 2 2 2 2
left_child=1 2 4 12 9 7 -5 17 -2 24 -8 22 -4 14 -3 20 -11 18 -6 23 21 -9 -12 -10 25 26 28 -28 29 -1
right_child=8 13 3 6 5 -7 10 15 19 16 11 -13 -14 -15 -16 -17 -18 -19 -20 -21 -22 -23 -24 -25 -26 -27 27 -29 -30 -31
leaf_value=0.063657823512224029 0.0081094186649639712 0.025362273696238103 -0.0097319487098684425 -0.0053380462183080929 0.0023656297842995764 0.021934725237481696 -0.016423739966541073 -0.013067217515418117 0.052176134903621267 -0.027087734104668422 -0.013800842043414169 -0.023980885883475099 0.021552304168956257 0.063804316875720302 0.0060361110352010368 0.02155557573508244 0.0041936678162408222 -0.018872088699086582 0.092382807316271381 0.016158438759931306 0.0051757059720801794 -0.033795531856711407 -0.039145597841081625 0.014812856478847211 0.084383354445449643 0.065867408698817451 -0.025257452840808128 0.044329795423535844 0.028596939135115709 0.00093273079709102122
leaf_weight=5.5614269375801078 21.097710371017456 174.542221352458 306.25361549854279 96.832813054323196 176.69159619510174 59.945902794599533 182.07333123683929 161.46456060558558 436.60809057950974 30.142340287566185 31.990386188030243 401.1283553391695 27.289038047194481 10.953798919916151 133.03208540380001 13.566593825817106 76.347259312868118 51.69197978079319 3.2372969090938559 17.888270750641823 27.597547762095928 128.21425669640303 353.77667634189129 13.883551731705664 3.8986992686986914 6.8576911836862555 21.569621130824093 5.809443160891532 80.159407988190651 68.140392735600471
leaf_count=27 96 820 1968 632 1097 284 1249 1102 1771 183 226 2995 141 54 685 73 469 330 21 72 200 939 2760 58 20 39 125 31 419 364
internal_value=-0.00085623 -0.00990038 -0.0138147 -0.0213023 -0.00243704 -0.007955 -0.0257242 -0.0111406 0.0479007 0.00906912 -0.0277615 -0.0303849 -0.0071724 0.0186127 0.0170033 -0.0181587 -0.00466067 -0.00111595 0.00398523 0.049693 -0.0198569 -0.0222417 -0.0370438 0.0510246 0.0166842 0.0152811 0.013367 -0.010492 0.0176126 0.00566587
internal_weight=3128.25 2638.77 2320.24 1399.34 920.896 622.41 1065.8 562.464 489.478 298.486 968.969 786.895 333.543 318.528 307.574 330.843 106.49 231.621 179.929 468.38 317.276 289.679 385.767 450.492 191.997 188.098 181.24 27.3791 153.861 73.7018
internal_count=19250 17253 15694 9971 5723 4046 7862 3762 1997 1677 7230 5981 2109 1559 1505 2314 652 1448 1118 1901 2241 2041 2986 1829 1025 1005 966 156 810 391
is_linear=0
shrinkage=0.05


Tree=16
num_leaves=31
num_cat=1
split_feature=5 7 17 0 4 0 11 0 11 18 15 15 8 14 16 0 11 11 1 19 11 6 19 0 17 20 15 0 4 11
split_gain=497.632 106.929 87.4565 55.837 14.4461 13.1227 12.7064 12.2838 20.8313 16.1159 13.8755 11.7925 11.2059 10.3215 9.34601 9.58397 9.4256 9.30462 12.91 11.9483 10.9817 10.6988 10.6821 9.08082 13.2672 9.31606 10.9626 9.01398 9.00559 10.8748
threshold=1.5000000000000002 1.0000000180025095e-35 1220.5000000000002 75000.000000000015 60.500000000000007 245000.00000000003 2212.5000000000005 125000.00000000001 673.50000000000011 8207.5000000000018 -552.49999999999989 226560.50000000003 1.0000000180025095e-35 2500.5000000000005 503.50000000000006 485000.00000000006 322.50000000000006 110533.00000000001 0 3800.5000000000005 4347.0000000000009 -1.4999999999999998 2654.5000000000005 155000.00000000003 1870.5000000000002 389.50000000000006 2302.5000000000005 375000.00000000006 32.500000000000007 1.0000000180025095e-35
decision_type=2 2 2 2 2 2 2 2 2 2 2 2 2 2 2 2 2 2 1 2 2 2 2 2 2 2 2 2 2 2
left_child=1 2 4 -4 7 17 -2 9 14 10 -1 -7 -12 -8 28 16 -16 20 -19 22 21 -5 -20 -23 25 -25 -27 -13 -9 -30
right_child=6 -3 3 5 -6 11 13 8 -10 -11 12 27 -14 -15 15 -17 -18 18 19 -21 -22 23 -24 24 -26 26 -28 -29 29 -31
leaf_value=0.10604600072388506 0.019238160726197089 0.017562772568891945 -0.0055657373098964682 -0.040581648463714738 0.07115143089314073 -0.036480595884458671 0.077621048139465895 -0.0062243872183583822 -0.017564681541498491 -0.041002353684402193 0.0072968708454998381 0.019016031799524512 0.055345041165639292 0.045915403437432424 -0.026884434028846462 0.065568613820919372 0.014820051906677505 -0.023353634159436396 0.0098970778506189405 -0.0082462920239155055 -0.029130780253270407 -0.023230396254034429 0.086976595075037411 -0.018835079676452881 -0.0047839179211047172 0.12189667245207952 0.014073384629441533 -0.029399421974545637 0.026154570346938535 -0.0094156736287629196
leaf_weight=3.7731038182973853 42.485289350152016 320.61179383099079 467.91554789245129 25.55514007806778 7.2353950887918463 350.1932769343257 27.335403829813004 55.326948598027229 191.0013761818409 15.8579174131155 263.51283085346222 17.604363858699799 12.720615893602369 421.0572787374258 48.736276224255562 3.8749319463968268 18.764665126800537 95.983159467577934 12.108101047575476 47.031993396580219 416.29180087894201 37.237712375819683 7.1487431079149237 3.3829414099454871 43.162440620362759 5.7234233617782575 4.0083272159099579 21.179889731109142 94.671582773327827 27.796612501144409
leaf_count=21 187 1559 3027 184 36 2782 111 309 1241 102 1453 125 63 1699 304 24 119 734 87 361 3191 259 53 21 309 38 28 153 501 169
internal_value=-0.000826174 -0.00948704 -0.0132613 -0.0200063 0.000845716 -0.0262247 0.0453721 0.000154597 -0.00514109 0.00803325 0.0108103 -0.0335834 0.0095095 0.0478483 0.00438219 -0.0109012 -0.015291 -0.0221218 -0.0116335 0.00533677 -0.0253009 -0.011911 0.0385114 -0.00407607 0.00859805 0.0526401 0.0774863 -0.00742341 0.0105177 0.0180812
internal_weight=3109.29 2618.41 2297.8 1554.53 743.272 1086.61 490.878 736.037 440.172 295.864 280.007 388.978 276.233 448.393 249.171 71.3759 67.5009 697.634 162.272 66.2888 535.362 119.07 19.2568 93.5148 56.2771 13.1147 9.73175 38.7843 177.795 122.468
internal_count=19250 17253 15694 11352 4342 8325 1997 4306 2667 1639 1537 3060 1516 1810 1426 447 423 5265 1235 501 4030 839 140 655 396 87 66 278 979 670
cat_boundaries=0 1
cat_threshold=4
is_linear=0
shrinkage=0.05


Tree=17
num_leaves=31
num_cat=1
split_feature=7 17 0 17 9 0 11 22 11 9 9 18 17 19 16 13 15 13 3 9 11 21 20 15 11 22 12 11 22 0
split_gain=265.841 87.0053 29.3447 29.0533 20.1321 18.8574 17.074 16.6361 16.1936 14.326 13.7097 12.5999 12.4946 11.7756 9.68949 9.70597 14.5509 9.38496 8.57778 8.26935 8.4875 7.6664 14.9058 8.48872 8.22869 11.4845 7.63668 12.6859 13.3414 14.8903
threshold=1.0000000180025095e-35 2999.5000000000005 125000.00000000001 1.0000000180025095e-35 1.0000000180025095e-35 265000.00000000006 220072.00000000003 1.0000000180025095e-35 6934.5000000000009 -1.4999999999999998 1.0000000180025095e-35 8803.5000000000018 1166.5000000000002 1.0000000180025095e-35 -197.99999999999997 221.50000000000003 584.00000000000011 50893.500000000007 0 1.0000000180025095e-35 75756.500000000015 3990.5000000000005 32022.000000000004 120688.00000000001 194697.00000000003 7075.0000000000009 83910.500000000015 140.50000000000003 1.0000000180025095e-35 195000.00000000003
decision_type=2 2 2 2 2 2 2 2 2 2 2 2 2 2 2 2 2 2 9 2 2 2 2 2 2 2 2 2 2 2
left_child=1 2 4 26 11 7 -7 17 9 -5 -2 12 14 18 -1 16 -16 -3 -11 20 -9 22 23 -22 -23 -26 27 28 29 -4
right_child=10 5 3 8 -6 6 -8 19 -10 13 -12 -13 -14 -15 15 -17 -18 -19 -20 -21 21 24 -24 -25 25 -27 -28 -29 -30 -31
leaf_value=0.084703717327409056 0.021832448667714208 -0.006433077875760306 -0.0088335008043549639 -0.027979241743951569 0.029208421339738451 -0.037944114851118871 -0.0092452897102958866 -0.026183619406098486 -0.029696697650132116 0.055449808645730903 0.037037330853719179 -0.031331406486742749 -0.00072302652876522061 -0.0067301553291661508 0.0081948171485743612 0.017973303754136697 -0.040989920894383275 0.027390336324400549 -0.0024988905862064928 0.011251690595355433 -0.010712266633948982 -0.028041516924589976 0.10540245741781998 0.044497756131421082 0.03011126446633644 -0.02924903134814872 0.033254230444520021 -0.01191857876240271 -0.014587627921277531 0.029942012127587687
leaf_weight=4.5754304826259604 302.25715664029121 68.275937460362911 34.914019465446472 70.062562324106693 80.669163331389427 209.43692965805531 68.86739631742239 268.14277809113264 157.14550258219242 14.505234524607658 290.96591056883335 25.871060557663441 483.62900005280972 141.19507473707199 73.233966678380966 184.07192029058933 18.922778770327568 29.314005553722382 11.408702403306961 22.262774772942066 122.37603052705526 112.81369441002607 2.9869183450937262 7.3821847140789023 16.323689348995686 16.26907292753458 20.248613595962524 107.08501376956701 40.292909130454063 85.120734751224518
leaf_count=24 1441 474 187 475 380 1736 487 2025 1187 85 1206 177 3061 935 407 948 115 199 70 129 895 866 22 50 121 116 92 658 241 441
internal_value=-0.000797786 -0.00794476 -0.000666806 -0.00843416 0.00541509 -0.0199118 -0.0308425 -0.0153452 -0.0172487 -0.0090009 0.0292902 0.00298642 0.00414785 -0.001044 0.012537 0.0113416 -0.00190441 0.00372678 0.0299377 -0.0186188 -0.0198361 -0.013717 -0.00502923 -0.00757127 -0.0216482 0.000480852 0.00364855 0.00140679 0.010307 0.0186635
internal_weight=3090.63 2497.4 1552.95 681.978 870.973 944.451 278.304 666.147 394.317 237.172 593.223 790.304 764.433 167.109 280.804 276.229 92.1567 97.5899 25.9139 568.557 546.294 278.152 132.745 129.758 145.406 32.5928 287.661 267.413 160.328 120.035
internal_count=19250 16603 9483 4371 5112 7120 2223 4897 2752 1565 2647 4732 4555 1090 1494 1470 522 673 155 4224 4095 2070 967 945 1103 237 1619 1527 869 628
cat_boundaries=0 1
cat_threshold=2
is_linear=0
shrinkage=0.05


Tree=18
num_leaves=31
num_cat=0
split_feature=5 5 0 19 11 9 8 18 22 11 9 9 0 17 11 14 11 5 17 22 14 4 4 0 0 11 12 11 21 19
split_gain=431.393 90.9682 51.0483 41.4403 19.5863 17.0615 16.2624 11.9789 11.8457 11.718 10.7485 10.4678 14.5047 10.4611 9.95552 9.90937 9.83421 9.81234 9.1015 9.55605 9.08401 8.71161 8.64777 8.60028 8.49364 9.67385 10.8918 9.02198 14.103 11.3605
threshold=1.5000000000000002 1.0000000180025095e-35 75000.000000000015 600.50000000000011 8306.0000000000018 1.0000000180025095e-35 1.0000000180025095e-35 8424.0000000000018 650.50000000000011 908.00000000000011 1.0000000180025095e-35 -1.4999999999999998 245000.00000000003 21.000000000000004 8543.0000000000018 -1449.9999999999998 -182.49999999999997 -1.4999999999999998 500.50000000000006 3300.5000000000005 49916.000000000007 43.500000000000007 56.500000000000007 295000.00000000006 245000.00000000003 237467.50000000003 3685.5000000000005 77014.500000000015 999.50000000000011 1000.5000000000001
decision_type=2 2 2 2 2 2 2 2 2 2 2 2 2 2 2 2 2 2 2 2 2 2 2 2 2 2 2 2 2 2
left_child=1 2 7 4 11 24 8 10 15 -2 14 13 18 23 17 -3 -17 -1 19 -13 -12 -8 -18 -4 27 26 -26 -5 -29 -30
right_child=9 6 3 5 -6 -7 21 -9 -10 -11 20 12 -14 -15 -16 16 22 -19 -20 -21 -22 -23 -24 -25 25 -27 -28 28 29 -31
leaf_value=-0.029187432935746049 0.0059404549180004981 0.10593514536876632 -0.0058429559609079413 -0.026161975638110936 -0.02214218174042137 0.0083701025536312337 0.018983425042526356 -0.035863651328085021 -0.0052637246431422096 0.043834513922623969 0.014370899490119347 0.016872835569474422 -0.012054383664976159 -0.0225833331016797 -0.0063154533919405681 -0.041604091716656452 0.012027709955586599 0.014012165113336925 0.042678307829450993 -0.064392259343413652 0.091935613525293391 0.050542998034992584 0.070575263474269734 0.027312402109625562 -0.018637968956358348 -0.012795388249159595 -0.040211011724418808 0.025876092116420436 0.082121007036845703 -0.018850100382502094
leaf_weight=14.760929197072981 21.326958477497101 2.8289685100316992 63.500904977321625 408.44060370326042 112.76132870465517 39.916342474520206 92.406478509306908 24.718290448188782 153.59403094649315 469.84178926050663 57.500566646456718 41.521388366818428 38.375579550862312 59.243488490581512 424.15242952108383 8.3010051697492582 193.57991653680801 120.05638946592808 39.149096749722958 3.9627658873796454 4.0399720370769492 28.644564658403397 6.5194634348154059 28.264775663614273 78.770275175571442 60.588431224226952 227.45485629886389 20.247252963483334 2.8198837190866461 230.22933728992939
leaf_count=92 96 14 379 3132 787 229 396 181 812 1901 283 235 246 404 2741 47 987 702 248 24 21 120 28 157 583 447 1973 143 21 1821
internal_value=-0.000767934 -0.00892583 -0.0134358 -0.0186261 -0.00460241 -0.0237026 0.0105712 -0.00172967 0.00530199 0.0421891 -0.000369932 0.0026154 0.0134432 -0.00620472 -0.00255345 0.0129848 0.011723 0.00928231 0.0250047 0.00979269 0.0194628 0.0264514 0.0139353 0.00436924 -0.0249473 -0.03105 -0.0346618 -0.0215644 -0.0141508 -0.0176284
internal_weight=3077.52 2586.35 2100.47 1455.25 386.779 1068.47 485.874 645.229 364.823 491.169 620.51 274.018 123.009 151.009 558.97 211.229 208.4 134.817 84.6333 45.4842 61.5405 121.051 200.099 91.7657 1028.55 366.814 306.225 661.737 253.296 233.049
internal_count=19250 17253 14849 10829 2480 8349 2404 4020 1888 1997 3839 1693 753 940 3535 1076 1062 794 507 259 304 516 1015 536 8120 3003 2556 5117 1985 1842
is_linear=0
shrinkage=0.05


Tree=19
num_leaves=31
num_cat=1
split_feature=5 5 0 19 10 11 8 8 18 11 11 22 12 11 19 9 7 0 3 11 13 0 5 19 4 11 13 12 18 4
split_gain=389.888 82.8689 47.2209 38.6705 19.6422 17.951 14.5628 12.6248 11.1017 10.9617 10.6707 9.92796 9.84073 18.2066 9.76655 9.62882 9.44554 12.3849 9.31619 8.98203 9.42828 10.2692 8.89551 8.75338 8.61523 8.29063 8.17548 8.01496 7.97514 12.3865
threshold=1.5000000000000002 1.0000000180025095e-35 75000.000000000015 600.50000000000011 1.0000000180025095e-35 8306.0000000000018 1.0000000180025095e-35 1.0000000180025095e-35 8424.0000000000018 -182.49999999999997 2212.5000000000005 151.50000000000003 4584.5000000000009 77014.500000000015 1000.5000000000001 1.0000000180025095e-35 -1.0000000180025095e-35 205000.00000000003 0 8543.0000000000018 34734.000000000007 35000.000000000007 -1.4999999999999998 11727.000000000002 31.500000000000004 5489.0000000000009 16360.500000000002 23895.500000000004 1600.5000000000002 25.500000000000004
decision_type=2 2 2 2 2 2 2 2 2 2 2 2 2 2 2 2 2 2 9 2 2 2 2 2 2 2 2 2 2 2
left_child=1 2 8 5 7 16 9 12 15 -3 -2 -11 -5 -14 -15 19 -4 25 -16 22 21 24 -1 27 -21 -18 -12 -13 29 -22
right_child=10 6 3 4 -6 -7 -8 -9 -10 11 26 23 13 14 18 -17 17 -19 -20 20 28 -23 -24 -25 -26 -27 -28 -29 -30 -31
leaf_value=-0.028225029721477501 0.016237095801683976 -0.033643588223918802 -0.0012530764741214972 -0.015897848766456443 0.0076993759178988902 -0.021344204555942371 0.024994867092678823 0.033518438313313255 -0.03492106463335732 0.015290164414012465 0.056536012429964068 -0.0082149036084569003 -0.035385405715224479 0.049234038366273873 0.072237136391850906 0.018332817468443407 0.035173628226291366 -0.0095229678077785491 -0.021533447101141107 -0.013682338665762937 0.098811006805135979 -0.021606449027703506 0.013208620711847838 -0.045215339506605591 0.010275482453210083 0.11533872052274596 0.039132757316250065 0.014387830451422005 -0.00071037351818210338 0.011406262921212105
leaf_weight=14.507579773664473 42.88225057721138 17.452615678310394 236.17685481905937 229.20917129516602 49.917540028691292 111.16950000822544 121.68013547360897 9.3090775907039625 24.131305202841759 176.47558449953794 82.753131821751595 92.938799478113651 383.87850367277861 5.0361098796129218 2.6678376942873001 62.039536416530609 19.07829283177853 15.145309545099733 370.70766242593527 79.942624241113663 5.2663198262453106 130.27045179158449 120.96782158315182 10.781170003116129 70.719150200486183 3.8813453987240782 365.6996745467186 67.857696503400803 118.7210570499301 17.59904807806015
leaf_count=92 187 103 1479 1668 307 787 516 50 181 882 335 508 3277 37 21 304 101 90 2989 497 33 851 702 68 437 23 1475 327 812 111
internal_value=-0.000740783 -0.0085497 -0.0128967 -0.0179417 -0.022911 -0.00439557 0.0100124 -0.0244378 -0.00164869 0.00502465 0.0400656 0.00696361 -0.0249819 -0.0277134 -0.0199305 -0.000353749 0.0024739 0.0255739 -0.0208634 -0.00243138 -0.00602349 -0.0113259 0.00877164 -0.00160063 -0.00243677 0.0487256 0.0423442 0.00132367 0.00449742 0.0315372
internal_weight=3058.86 2567.53 2080.34 1436.18 1050.73 385.451 487.186 1000.81 644.165 365.506 491.335 348.053 991.499 762.29 378.412 620.034 274.282 38.1049 373.376 557.994 422.519 280.932 135.475 171.578 150.662 22.9596 448.453 160.796 141.586 22.8654
internal_count=19250 17253 14849 10829 8349 2480 2404 8042 4020 1888 1997 1785 7992 6324 3047 3839 1693 214 3010 3535 2741 1785 794 903 934 124 1810 835 956 144
cat_boundaries=0 1
cat_threshold=8
is_linear=0
shrinkage=0.05


Tree=20
num_leaves=31
num_cat=0
split_feature=6 8 22 0 11 12 0 11 10 4 0 7 21 9 11 4 7 13 16 0 11 15 11 4 11 12 10 0 21 15
split_gain=252.327 55.8167 46.7219 22.3013 18.1193 16.1291 15.501 19.7459 15.1988 12.5483 12.2051 10.4332 10.1043 12.5943 10.0199 9.70188 9.09687 8.49727 8.35716 8.00115 13.011 7.96436 21.4098 7.459 9.27716 9.22857 7.05074 7.85981 6.88411 8.52326
threshold=1.5000000000000002 1.0000000180025095e-35 969.50000000000011 145000.00000000003 220072.00000000003 4958.0000000000009 25000.000000000004 781.00000000000011 1.0000000180025095e-35 52.500000000000007 145000.00000000003 1.5000000000000002 1221.5000000000002 1.0000000180025095e-35 50796.000000000007 55.500000000000007 -1.0000000180025095e-35 781.00000000000011 21845.500000000004 265000.00000000006 150687.00000000003 28614.500000000004 65805.500000000015 31.500000000000004 13348.500000000002 9564.0000000000018 1.0000000180025095e-35 205000.00000000003 10000.500000000002 226560.50000000003
decision_type=2 2 2 2 2 2 2 2 2 2 2 2 2 2 2 2 2 2 2 2 2 2 2 2 2 2 2 2 2 2
left_child=1 2 6 11 5 -5 23 9 19 -8 16 12 14 18 -4 17 -9 -3 -14 -2 -21 22 -16 24 25 -1 -7 -28 29 -6
right_child=8 15 3 4 28 26 7 10 -10 -11 -12 -13 13 -15 21 -17 -18 -19 -20 20 -22 -23 -24 -25 -26 -27 27 -29 -30 -31
leaf_value=0.0076423235895835863 0.023194478707811984 -0.021203586509470743 -0.0062648365518368655 -0.01238938060998099 -0.0028623457892308015 -0.031381693317670593 0.00306258088596081 -0.020123820576011878 0.036585083003514034 0.040026828394155341 -0.019679421184976051 0.019843876909486791 -0.030168675413025505 0.035706341898829201 0.1119568242064235 -0.051255270945452173 0.0014644115936142364 0.024441476199606925 -0.012354702880828083 -0.032306288049342199 0.035443524304176514 0.0032478939428999586 -0.011200401363078009 0.029114246975423908 -0.019638937820520716 0.070174690617231791 0.035134661703859683 -0.038811688345353354 -0.019210459263455996 0.040116294085305648
leaf_weight=31.249417684972286 360.13217702507973 10.887168034911154 160.18103513121605 181.42731983214617 36.371475771069527 414.19749231636524 303.25227049738169 62.963585309684277 270.49522104859352 24.840000733733177 195.31201080977917 30.495947495102882 88.653954990208149 11.74774621427059 7.2867489084601385 4.7020703554153434 216.88949356973171 160.61826667189598 255.82240548729897 16.986777886748317 12.159116983413695 19.944868683815002 6.8425714373588562 55.651191398501396 25.051443591713905 7.2734648883342734 8.4889699220657331 6.2313126921653739 29.897137328982353 16.893585532903671
leaf_count=174 1569 53 1026 1332 272 3595 1724 428 1110 127 1483 176 630 67 46 24 1396 804 1872 86 55 132 48 314 152 41 55 43 213 117
internal_value=0.000129318 -0.00747486 -0.0096465 -0.0158499 -0.0219036 -0.0248869 -0.001076 -0.00357305 0.0274812 0.00586116 -0.0100872 -0.00862364 -0.0102007 -0.0152031 -0.00102735 0.0196013 -0.00339268 0.0215439 -0.0169393 0.0211552 -0.00404235 0.0235938 0.052314 0.0157474 0.00404641 0.019449 -0.0301732 0.00383208 -8.86742e-06 0.0107688
internal_weight=3032.95 2373.17 2196.97 1274.48 693.507 610.345 922.483 803.257 659.773 328.092 475.165 580.975 550.479 356.224 194.255 176.208 279.853 171.505 344.476 389.278 29.1459 34.0742 14.1293 119.226 63.5743 38.5229 428.918 14.7203 83.1622 53.2651
internal_count=19164 16344 15463 9624 5627 5025 5839 5158 2820 1851 3307 3997 3821 2569 1252 881 1824 857 2502 1710 141 226 94 681 367 215 3693 98 602 389
is_linear=0
shrinkage=0.05


Tree=21
num_leaves=31
num_cat=3
split_feature=5 5 18 8 7 20 0 0 17 14 15 12 19 12 0 1 2 10 12 0 3 12 14 17 12 8 19 18 9 21
split_gain=331.324 67.8974 51.2136 26.5177 15.5097 16.5113 14.3181 13.2004 12.7185 12.1038 10.7877 10.2597 10.0218 14.1709 9.10329 8.64728 16.837 12.3964 10.4865 10.3827 8.24273 8.01204 11.3064 9.23412 8.01047 7.96984 10.5359 10.6288 8.96916 8.34534
threshold=1.0000000180025095e-35 1.5000000000000002 1640.5000000000002 1.0000000180025095e-35 1.5000000000000002 2999.0000000000005 35000.000000000007 265000.00000000006 1367.5000000000002 193491.00000000003 159.00000000000003 219086.50000000003 7985.5000000000009 204195.50000000003 75000.000000000015 0 1 1.0000000180025095e-35 3685.5000000000005 75000.000000000015 2 44488.500000000007 43453.000000000007 3248.5000000000005 2424.5000000000005 -1.4999999999999998 371.50000000000006 1200.5000000000002 1.0000000180025095e-35 292.50000000000006
decision_type=2 2 2 2 2 2 2 2 2 2 2 2 2 2 2 1 9 2 2 2 9 2 2 2 2 2 2 2 2 2
left_child=2 6 4 7 5 8 10 9 25 15 -2 -9 13 -11 -10 17 -17 18 -4 -20 -19 22 23 -8 -12 -1 27 29 -28 -27
right_child=1 -3 3 -5 -6 -7 21 11 14 12 24 -13 -14 -15 -16 16 -18 20 19 -21 -22 -23 -24 -25 -26 26 28 -29 -30 -31
leaf_value=-0.0054058029072756508 0.068285364424613762 0.037271211877504387 -0.0065774254151711332 0.0070279716357990879 0.012670126532791821 -0.026063898840451447 0.0065497842757495824 -0.03477868428051735 -0.0020225189089301244 -0.020511844727541931 -0.031696064420176612 -0.010588511539154787 -0.0067115233807249364 0.12642301796658154 -0.021247834042020977 0.0014568954774300815 -0.02206990054262721 0.046156870622614976 -0.014749557756865511 -0.032106250587809582 -0.013922129377343643 0.01878053865237771 -0.053896040573996509 -0.02905000913649175 0.025215500936780124 0.00038598550034287898 -5.5722812352252536e-05 0.085582358864990563 0.051551221629992663 0.039472689601668977
leaf_weight=146.06382304430008 13.939139336347578 485.88988445699215 75.477887585759163 96.928027838468552 149.26049715280533 82.699003145098686 261.97071851789951 215.13523396849632 131.48334510624409 2.6475213989615467 6.669051229953765 55.048234343528748 10.560744188725947 4.3158494308590889 115.80341581255198 146.78616070002317 154.93634323775768 10.632979020476341 123.46057257056236 285.20021293312311 12.328518643975258 99.559139870107174 8.6700555905699712 19.576700553297997 84.829658344388008 27.466058731079102 149.75611801445484 6.922876998782157 8.9208205044269544 27.159993469715118
leaf_count=912 64 1979 553 519 778 613 1324 1969 831 22 35 412 84 34 868 1128 1232 69 867 2451 79 458 49 130 365 158 943 39 44 155
internal_value=0.000117563 0.0239922 -0.0113702 -0.0180401 -0.00195581 -0.00509117 0.0109632 -0.020256 -0.00226443 -0.017119 0.0273097 -0.0298501 0.023992 0.0705574 -0.0110257 -0.0180098 -0.0113074 -0.0219976 -0.0237001 -0.0268626 0.0138992 0.00654129 0.00234261 0.00407444 0.0210674 0.00365038 0.00965686 0.0272166 0.00284562 0.0198198
internal_weight=3020.1 981.104 2038.99 1193.46 845.536 696.275 495.214 1096.53 613.576 826.347 105.438 270.183 17.5241 6.96337 247.287 808.823 301.723 507.1 484.139 408.661 22.9615 389.777 290.217 281.547 91.4987 366.29 220.226 61.5489 158.677 54.6261
internal_count=19164 4404 14760 9419 5341 4563 2425 8900 3950 6519 464 2381 140 56 1699 6379 2360 4019 3871 3318 148 1961 1503 1454 400 2251 1339 352 987 313
cat_boundaries=0 1 2 3
cat_threshold=4 4 2
is_linear=0
shrinkage=0.05


Tree=22
num_leaves=31
num_cat=0
split_feature=5 5 18 8 20 0 0 7 13 22 10 19 22 15 21 14 20 4 12 16 22 20 12 0 20 10 18 19 8 0
split_gain=299.88 61.6908 47.3481 24.4997 14.1166 12.7821 12.5361 12.245 11.9559 10.5939 10.7343 10.1868 12.8332 9.9962 9.80982 9.69362 9.48155 9.12333 10.9781 12.7962 8.8358 9.0046 8.64848 9.20051 8.34728 7.89448 10.0028 8.1674 10.4669 10.8705
threshold=1.0000000180025095e-35 1.5000000000000002 1640.5000000000002 1.0000000180025095e-35 2200.5000000000005 35000.000000000007 265000.00000000006 1.5000000000000002 199440.00000000003 2999.0000000000005 1.0000000180025095e-35 6998.0000000000009 5822.5000000000009 226560.50000000003 10000.500000000002 7522.0000000000009 49.500000000000007 42.500000000000007 27085.500000000004 3291.0000000000005 3601.0000000000005 1999.5000000000002 9047.5000000000018 335000.00000000006 8325.0000000000018 1.0000000180025095e-35 1499.5000000000002 650.50000000000011 -1.4999999999999998 315000.00000000006
decision_type=2 2 2 2 2 2 2 2 2 2 2 2 2 2 2 2 2 2 2 2 2 2 2 2 2 2 2 2 2 2
left_child=2 5 4 6 7 16 8 25 9 -4 15 12 -12 -8 -15 -11 -2 18 19 -7 -20 -22 -6 -24 -10 27 -27 28 29 -1
right_child=1 -3 3 -5 22 17 13 -9 24 10 11 -13 -14 14 -16 -17 -18 -19 20 -21 21 -23 23 -25 -26 26 -28 -29 -30 -31
leaf_value=-0.012171408000124333 0.044159573756470616 0.035448912419648961 -0.012721205191186686 0.0066534620329110929 -0.028831698692373443 0.0038015390408635344 -0.032821034224355915 0.015747170376552651 0.038389821487815889 -0.0060767283202884 0.0062357897381016625 -0.062142853067073282 0.12239943944545997 0.02631787508199844 -0.027062033730653242 -0.030421311392609181 0.013622976245993096 0.020598006666086632 0.0242114064745956 -0.023424598055771594 0.044189544700541095 -0.024738297899551589 0.0033797306964526703 -0.058639066117532161 -0.037527751982412656 0.005192660084198308 0.076553762137925974 -0.0095969397797000498 0.012248667842827687 0.021870700825988014
leaf_weight=134.96971825510263 42.211790233850479 485.33744964003563 475.47756277769804 97.256044700741768 70.45522091537714 139.42424700409174 229.11193060129881 116.5695539265871 15.91745711117983 48.649767242372036 8.8589558750390989 3.2616951614618293 3.2497373670339575 15.06325953453779 20.080533884465694 256.37462388724089 63.902616918087006 85.843640215694904 75.70426282286644 62.503744900226593 6.12883082777262 20.882663890719414 55.736395820975304 6.6987821757793418 4.6869026198983184 16.500751793384556 6.9912168085575095 263.82562567293644 143.57268273085356 28.381930246949196
leaf_count=867 181 1979 3642 519 508 736 2117 579 125 403 59 21 21 111 153 2211 283 421 338 333 29 104 379 55 37 92 39 1780 868 174
internal_value=0.000102632 0.0227718 -0.0109078 -0.0173836 -0.00186634 0.0103822 -0.0195467 0.000930126 -0.0164831 -0.0174566 -0.0244841 0.0162857 0.0374119 -0.0290123 -0.00418245 -0.0265385 0.0257703 0.00620057 0.00214361 -0.0046259 0.0154517 -0.00909877 -0.0168242 -0.00327438 0.0211207 -0.00197646 0.0264297 -0.00314566 0.00239973 -0.00625668
internal_weight=3003.63 981.939 2021.69 1177.99 843.702 496.602 1080.73 710.811 816.477 795.872 320.395 15.3704 12.1087 264.256 35.1438 305.024 106.114 390.487 304.644 201.928 102.716 27.0115 132.89 62.4352 20.6044 594.242 23.492 570.75 306.924 163.352
internal_count=19164 4404 14760 9419 5341 2425 8900 4399 6519 6357 2715 101 80 2381 264 2614 464 1961 1540 1069 471 133 942 434 162 3820 131 3689 1909 1041
is_linear=0
shrinkage=0.05


Tree=23
num_leaves=31
num_cat=2
split_feature=7 17 17 8 7 21 0 12 9 2 13 0 21 10 18 17 22 21 0 21 22 18 7 4 20 12 1 4 13 16
split_gain=167.459 59.8922 19.0736 22.9842 16.6019 15.4359 15.3547 16.6036 13.9717 12.472 11.8976 17.7552 11.2548 10.7156 10.2489 10.5782 10.05 10.3529 8.72397 8.65709 8.63769 8.59781 8.31451 9.43499 8.191 7.83619 10.4219 7.60727 7.50881 8.25755
threshold=1.0000000180025095e-35 2999.5000000000005 1.0000000180025095e-35 1.0000000180025095e-35 -1.0000000180025095e-35 580.50000000000011 105000.00000000001 3350.5000000000005 1.0000000180025095e-35 0 214170.00000000003 215000.00000000003 3473.5000000000005 1.0000000180025095e-35 6205.0000000000009 2157.5000000000005 1.0000000180025095e-35 11255.500000000002 205000.00000000003 700.50000000000011 660.50000000000011 19000.500000000004 -1.4999999999999998 54.500000000000007 2291.5000000000005 48199.500000000007 1 60.500000000000007 2140.5000000000005 19690.500000000004
decision_type=2 2 2 2 2 2 2 2 2 9 2 2 2 2 2 2 2 2 2 2 2 2 2 2 2 2 1 2 2 2
left_child=1 2 4 6 5 27 9 22 10 14 11 16 24 18 15 19 17 -3 -2 -4 -10 -12 23 -8 -5 -18 -27 -1 -17 -30
right_child=13 8 3 12 -6 -7 7 -9 20 -11 21 -13 -14 -15 -16 28 25 -19 -20 -21 -22 -23 -24 -25 -26 26 -28 -29 29 -31
leaf_value=0.0076892583483241144 0.020854052412216668 -0.0018333533035450344 0.010514504829396275 0.021381604422077264 0.023271214230761474 -0.014498897240693405 -0.026150813207037341 -0.027484663876775214 0.063344123612705375 -0.014405372341825387 0.0088370103679727124 -0.029715064056865817 -0.04381655015511602 0.030879671637558594 -0.037222757515691443 -0.038971912549462119 -0.02624633050744711 0.074560318174766757 -0.0020003442075204421 -0.0050888191593961678 0.001747726443281018 -0.037329060533114786 -0.00064042982999825858 0.070437709114824443 0.067792801299969577 -0.019616969840142568 0.00064677677049506971 0.07191702716070289 0.052399321302136426 0.013878102333022436
leaf_weight=262.20850536972284 287.37417763471603 71.449576750397682 154.53870618343353 53.002052754163742 132.85435734689236 96.68729905039072 57.947043754160404 137.36793512851 7.4468454793095615 116.88990171253681 62.780484884977341 272.05232852697372 5.6614386588335028 272.10367225110531 14.994149684906004 4.459243804216384 144.42990712076426 4.7284131944179526 48.854134231805801 209.27738891541958 24.145544648170471 12.015303291380404 188.17414683103561 2.6436574235558501 11.584617272019385 164.40303687006235 103.33511201292276 4.6927447021007529 22.239154011011124 37.154847256839275
leaf_count=1445 1310 511 917 256 580 617 434 1130 41 748 452 2491 30 1147 117 30 1177 35 247 1338 142 95 1271 19 56 1311 802 20 141 254
internal_value=9.2487e-05 -0.0058934 0.000112378 -0.00381279 0.00814495 0.00261784 -0.00586252 -0.0135321 -0.0163723 -0.000569966 -0.017607 -0.0194786 0.0237808 0.0235031 0.00333354 0.00483339 -0.013776 0.00290845 0.0175333 0.00153903 0.016267 0.00142083 -0.00582744 -0.0219365 0.0297062 -0.0168597 -0.0117961 0.00881853 0.0236037 0.0283018
internal_weight=2987.5 2379.16 1512.38 1015.93 496.443 363.589 945.686 386.133 866.787 559.553 835.194 760.398 70.2481 608.332 442.663 427.669 488.346 76.178 336.228 363.816 31.5924 74.7958 248.765 60.5907 64.5867 412.168 267.738 266.901 63.8532 59.394
internal_count=19164 16460 9403 6741 2662 2082 6399 2854 7057 3545 6874 6327 342 2704 2797 2680 3836 546 1557 2255 183 547 1724 453 312 3290 2113 1465 425 395
cat_boundaries=0 1 2
cat_threshold=12 4
is_linear=0
shrinkage=0.05


Tree=24
num_leaves=31
num_cat=0
split_feature=5 5 18 8 20 0 0 0 13 11 11 22 10 8 11 0 13 9 22 4 11 15 20 11 4 12 16 22 12 0
split_gain=255.52 55.6983 41.2267 20.4808 12.704 11.4984 11.1198 10.7838 10.6547 10.474 9.81748 9.57398 9.94933 9.46673 10.0742 13.2307 9.67461 9.24674 9.1318 10.0123 9.03714 8.90519 8.27238 8.10012 8.0591 9.22551 11.7859 7.9068 7.84735 8.4659
threshold=1.0000000180025095e-35 1.5000000000000002 1640.5000000000002 1.0000000180025095e-35 2200.5000000000005 265000.00000000006 13000.000000000002 35000.000000000007 199440.00000000003 535.50000000000011 220072.00000000003 2999.0000000000005 1.0000000180025095e-35 1.0000000180025095e-35 8306.0000000000018 145000.00000000003 837.00000000000011 -1.4999999999999998 390.50000000000006 33.500000000000007 3195.5000000000005 1.0000000180025095e-35 1410.5000000000002 6742.5000000000009 42.500000000000007 27085.500000000004 3291.0000000000005 66.500000000000014 9047.5000000000018 335000.00000000006
decision_type=2 2 2 2 2 2 2 2 2 2 2 2 2 2 2 2 2 2 2 2 2 2 2 2 2 2 2 2 2 2
left_child=2 7 4 5 6 8 20 21 11 -3 23 -4 -13 14 17 22 -15 -8 19 -19 -1 -2 -16 -7 25 26 -9 -22 -6 -30
right_child=1 9 3 -5 28 10 13 24 -10 -11 -12 12 -14 16 15 -17 -18 18 -20 -21 27 -23 -24 -25 -26 -27 -28 -29 29 -31
leaf_value=0.088379635111251423 0.060437691150066655 -0.0067233268162834488 -0.011857721725486482 0.0055073694224024037 -0.027731614665440992 -0.01701292542809105 -0.0058134138172520281 0.0033852703800819118 0.019810851256153828 0.034417242823616599 -0.0096544885909465444 -0.025215745429026305 0.016002915364706889 -0.02944182795358094 -0.0073844263481599379 -0.03046793050424005 0.030697976290186859 0.0038138754504199249 0.00024420527960016474 0.035801572321169525 -0.018094278070445103 0.017699922145610055 0.021015622596727623 -0.039452188535906048 0.018860645451461589 0.013714853119516335 -0.02282608945462631 0.043101878841938439 0.0029762887828580879 -0.058036945784264354
leaf_weight=5.6612894535064724 14.027057811617849 16.000581458210945 468.50971614569426 98.145295798778534 68.755625411868095 56.486649960279465 151.25800067931414 139.8551049977541 20.8909577652812 467.27445201575756 58.525698699057102 295.55715511739254 15.403154000639914 7.9993668794631949 191.25583531707525 57.688934572041035 40.770245254039764 44.466194175183773 105.15490989387035 54.379392817616463 9.0912179201841372 93.005774661898613 29.610608696937561 139.63477017730474 86.531141228973866 103.41729226708412 61.854321360588074 12.585038527846335 55.921759784221649 6.3288955986499777
leaf_count=29 62 70 3642 519 508 503 953 736 162 1909 455 2614 101 38 1222 456 182 257 649 312 49 402 185 1423 421 471 333 67 379 55
internal_value=8.0742e-05 0.0209586 -0.0102004 -0.0163397 -0.00178152 -0.0183721 0.000858475 0.00923598 -0.0154278 0.0330551 -0.0276262 -0.0163722 -0.023174 -0.000393847 -0.00202722 -0.00914609 0.0208336 0.00355462 0.0105006 0.0214117 0.0321273 0.0233009 -0.00357695 -0.0329893 0.00539231 0.00157282 -0.00465246 0.0174357 -0.0160876 -0.0032268
internal_weight=2976.05 981.966 1994.08 1153.15 840.927 1055.01 709.921 498.691 800.361 483.275 254.647 779.47 310.96 682.583 633.814 278.555 48.7696 355.258 204 98.8456 27.3375 107.033 220.866 196.121 391.658 305.127 201.709 21.6763 131.006 62.2507
internal_count=19164 4404 14760 9419 5341 8900 4399 2425 6519 1979 2381 6357 2715 4254 4034 1863 220 2171 1218 569 145 464 1407 1926 1961 1540 1069 116 942 434
is_linear=0
shrinkage=0.05


Tree=25
num_leaves=31
num_cat=2
split_feature=5 7 17 0 11 11 5 17 4 11 11 0 17 0 4 0 9 16 16 15 0 22 16 5 21 22 3 13 3 14
split_gain=243.801 51.7753 45.3367 17.2257 11.4265 12.021 8.67057 9.73581 9.30173 8.58431 8.36623 9.6683 9.4156 8.61973 7.84895 7.70806 7.96873 8.74696 10.289 8.04195 7.31123 7.14028 10.0538 8.92022 7.02281 6.96959 6.8344 6.83159 16.2712 16.8177
threshold=1.5000000000000002 1.0000000180025095e-35 1992.5000000000002 145000.00000000003 199659.00000000003 6742.5000000000009 -1.4999999999999998 75.500000000000014 45.500000000000007 535.50000000000011 150687.00000000003 205000.00000000003 4196.0000000000009 265000.00000000006 41.500000000000007 35000.000000000007 -1.4999999999999998 8826.5000000000018 9827.0000000000018 4830.5000000000009 495000.00000000006 3818.5000000000005 9827.0000000000018 4.5000000000000009 1732.5000000000002 2534.5000000000005 0 110492.00000000001 1 85100.000000000015
decision_type=2 2 2 2 2 2 2 2 2 2 2 2 2 2 2 2 2 2 2 2 2 2 2 2 2 2 9 2 9 2
left_child=1 2 6 27 5 -5 7 20 15 14 12 -12 13 -3 -2 16 -8 19 -19 26 25 23 -23 -11 -20 -1 -18 -4 -29 -30
right_child=9 10 3 4 -6 -7 8 -9 -10 21 11 -13 -14 -15 -16 -17 17 18 24 -21 -22 22 -24 -25 -26 -27 -28 28 29 -31
leaf_value=-0.0011854543487684116 -0.027372717448264978 0.016442125545366806 -0.011461783273144918 -0.013418601327287855 -0.0072378589927418165 -0.030879631726207082 0.040816074458437213 -0.029364218177515684 0.010872435136819769 0.037163451522084473 0.10259284931907171 0.018193257414836253 -0.0060819292227605503 -0.028968438110213851 0.044000215014252414 -0.0054177698765666546 -0.0096796940815375779 0.065335907603486107 0.015080298386850275 -0.032130623764980985 0.059661563382690179 -0.037223500973934343 0.02512488767618274 -0.0097832703296413318 -0.021563038576525848 -0.043187580344144882 0.038642295173248985 -0.032008785220923423 0.14460285105638818 0.019845686439637834
leaf_weight=77.647706463932991 11.319628417491915 235.90983635187149 459.20841922610998 137.69340296089649 98.502128444612026 346.8979539051652 15.529361143708227 59.056655898690224 148.22950621694326 374.4793154001236 5.2684292346239081 9.5331490188837034 72.337952941656113 10.934443414211271 5.8389275074005118 607.15351565182209 25.337172992527485 8.5571656525135023 64.870358876883984 26.416426002979279 4.3773518726229659 7.0024649649858466 84.358076423406601 10.399226337671278 16.376510806381702 11.315889671444891 10.288626402616499 11.170462355017662 3.4383804276585606 12.601642318069933
leaf_count=467 50 1048 3434 1168 781 3348 79 442 873 1536 25 47 389 57 25 3855 142 46 373 153 26 29 344 42 95 80 56 90 27 98
internal_value=-0.000437081 -0.00682634 -0.00967806 -0.0169669 -0.0227625 -0.0259182 -0.00242749 -0.0134762 -0.00060274 0.0316603 0.0114859 0.0482342 0.00978172 0.0144306 -0.00308505 -0.00279886 0.00670121 0.00321227 0.0131868 -0.0112255 -0.00342394 0.0329121 0.0203461 0.035895 0.00769429 -0.00652799 0.00427555 -0.0100194 0.014323 0.046589
internal_weight=2972.05 2478.65 2144.67 1069.51 583.093 484.591 1075.16 152.398 922.759 493.398 333.984 14.8016 319.182 246.844 17.1586 774.529 167.376 151.846 89.804 62.0422 93.3409 476.239 91.3605 384.879 81.2469 88.9636 35.6258 486.419 27.2105 16.04
internal_count=19225 17199 15633 8946 5297 4516 6687 1015 5672 2026 1566 72 1494 1105 75 4799 944 865 514 351 573 1951 373 1578 468 547 198 3649 215 125
cat_boundaries=0 1 2
cat_threshold=4 2
is_linear=0
shrinkage=0.05


Tree=26
num_leaves=31
num_cat=2
split_feature=5 7 17 0 12 19 7 14 20 0 14 19 4 22 22 17 12 0 17 4 1 1 19 15 20 18 18 15 22 16
split_gain=220.978 46.974 41.8181 16.1799 11.2089 10.2001 12.6249 9.91248 11.0798 9.0891 8.28568 7.88372 10.5328 8.44225 7.82341 7.7715 7.41577 8.39863 8.0215 7.38529 7.37759 7.34059 10.4759 13.0155 19.4583 9.73133 8.77507 9.4176 9.21268 8.01196
threshold=1.5000000000000002 1.0000000180025095e-35 1992.5000000000002 145000.00000000003 219086.50000000003 1.0000000180025095e-35 -1.4999999999999998 4770.5000000000009 1.0000000180025095e-35 295000.00000000006 1.0000000180025095e-35 9974.5000000000018 34.500000000000007 10746.000000000002 1.0000000180025095e-35 391.00000000000006 156666.50000000003 205000.00000000003 10619.000000000002 50.500000000000007 0 1 1237.5000000000002 7352.5000000000009 1472.5000000000002 1681.5000000000002 1196.5000000000002 19089.500000000004 1156.5000000000002 2533.0000000000005
decision_type=2 2 2 2 2 2 2 2 2 2 2 2 2 2 2 2 2 2 2 2 1 1 2 2 2 2 2 2 2 2
left_child=1 2 5 -4 7 10 -7 -5 -9 15 14 12 -6 -14 -1 -8 18 -18 20 -10 -3 -17 -23 24 29 26 -25 -28 -29 -24
right_child=-2 16 3 4 11 6 9 8 19 -11 -12 -13 13 -15 -16 21 17 -19 -20 -21 -22 22 23 25 -26 -27 27 28 -30 -31
leaf_value=0.0056290003221711798 0.030182343812503565 0.0040027076285545317 -0.0095873189291827993 -0.01221243856059998 -0.018610762664489171 -0.023228126919001377 0.0070534323997791804 0.004825806059462011 -0.032684947684925358 -0.021911335482788622 0.020861685608500997 -0.01959561502193552 0.022772606812075546 0.11104799874268284 -0.013231420031601285 -0.011478363820225174 0.1008414929671347 0.019082468566065078 -0.026464898750382271 -0.0029323556461528849 0.019606246742837587 -0.0094051934908203523 -0.0065701414541384775 -0.03462920815380726 0.12836508237099262 -0.017494179089597679 0.064183010017610134 -0.029797575061721027 0.060298639503556184 0.087514787058229834
leaf_weight=224.90560279786587 491.72378198802471 167.34189668297768 483.18948651105165 121.01165579259396 14.875231161713598 90.565644145011902 186.64034093171358 23.210733726620674 334.04325529187918 59.017040237784386 63.896800205111504 37.555782541632652 17.070163577795032 3.2192136868834487 72.775333106517792 214.73246495425701 4.7101972550153723 9.4287975281476957 14.932013303041456 22.246346041560173 138.41305290162563 84.909123048186302 8.992253743112089 5.3526364043355015 5.839560739696025 26.699750848114491 13.669659554958345 7.6349741667509061 4.515377439558506 3.0236026942729941
leaf_count=1261 2026 783 3649 1022 117 652 993 211 3290 440 337 285 132 24 462 1484 22 47 85 216 629 540 59 35 43 197 83 49 31 21
internal_value=-0.000421649 -0.00652805 -0.00926522 -0.0163271 -0.0220082 -0.00231357 -0.00578831 -0.0246732 -0.0286466 -0.00324502 0.0045248 -0.00366539 0.0133481 0.0367788 0.00101811 -0.00128486 0.0108812 0.0463193 0.00931877 -0.0308272 0.0110663 -0.00543081 0.0026533 0.0161738 0.0534922 0.0046599 0.0236351 0.0357137 0.00368445 0.0171049
internal_weight=2956.14 2464.42 2129.59 1056.42 573.232 1073.17 711.592 500.512 379.5 621.027 361.578 72.7204 35.1646 20.2894 297.681 562.01 334.826 14.139 320.687 356.29 305.755 375.369 160.637 75.7278 17.8554 57.8724 31.1726 25.82 12.1504 12.0159
internal_count=19225 17199 15633 8946 5297 6687 4627 4739 3717 3975 2060 558 273 156 1723 3535 1566 69 1497 3506 1412 2542 1058 518 123 395 198 163 80 80
cat_boundaries=0 1 2
cat_threshold=4 4
is_linear=0
shrinkage=0.05


Tree=27
num_leaves=31
num_cat=1
split_feature=5 0 11 12 5 8 11 11 0 8 17 17 11 17 17 12 18 10 3 20 11 11 6 22 14 22 20 4 12 11
split_gain=200.243 41.0767 32.5781 24.1406 21.3691 11.2925 11.2272 13.5575 11.52 12.5928 10.3859 9.55096 8.73312 10.3584 8.27763 8.25583 10.4616 8.04851 9.08935 8.02227 11.3644 7.87693 7.97175 8.26903 9.19104 7.56806 7.08458 7.02449 6.51647 7.84374
threshold=1.5000000000000002 145000.00000000003 6742.5000000000009 161106.50000000003 1.0000000180025095e-35 1.0000000180025095e-35 1.0000000180025095e-35 781.00000000000011 35000.000000000007 1.0000000180025095e-35 9737.0000000000018 2130.5000000000005 6076.0000000000009 1775.5000000000002 6419.5000000000009 46216.500000000007 1350.5000000000002 1.0000000180025095e-35 0 12394.500000000002 75756.500000000015 535.50000000000011 3.5000000000000004 3818.5000000000005 16893.500000000004 1007.5000000000001 2242.5000000000005 41.500000000000007 18455.500000000004 30684.500000000004
decision_type=2 2 2 2 2 2 2 2 2 2 2 2 2 2 2 2 2 2 9 2 2 2 2 2 2 2 2 2 2 2
left_child=1 4 12 -4 6 25 -1 11 28 15 14 -8 -3 -14 26 16 -10 -18 -19 -17 -21 27 23 -23 -25 -5 -11 -2 -9 -30
right_child=21 2 3 5 -6 -7 7 8 9 10 -12 -13 13 -15 -16 19 17 18 -20 20 -22 22 -24 24 -26 -27 -28 -29 29 -31
leaf_value=-0.043417104880390446 -0.027493280721118837 -0.0054317564229095375 -0.027578908820617046 0.031981277670785249 0.01138535879089065 0.044898727818498192 0.025149964796194274 0.010676586306068547 -0.0044594980771646411 0.0034264658317453029 -0.051957138326663377 -0.029527198546723022 0.086826470598549046 -0.0032441460985220224 0.087035921194176691 -0.0054752635592895784 -0.024937419349920914 -0.01749486515014629 0.069068486752843369 -0.011469226740733043 0.095254989164028317 0.034617948441608419 -0.0022031439028187892 -0.036654754258689942 0.022382514530984519 -0.011497512250221803 0.043496379109789554 0.039712876384390028 -0.0095424456242047331 0.05808154659874918
leaf_weight=17.521192371845245 11.327849864959719 527.07985080033541 428.80497901141644 10.826225131750105 302.60492365062237 10.759009167551993 61.577238187193871 158.7017035856843 132.5202414765954 44.167222797870636 5.7558629959821692 9.1771648749709112 5.6665418520569784 7.3095463588833809 4.0851411521434775 268.15725293755531 195.68628197908401 7.833836242556572 4.9478846043348295 5.1559347137808782 4.8320022448897362 365.20805759727955 18.495771646499634 7.168157070875167 82.095323204994202 132.50979093462229 14.703311681747435 5.920048013329505 85.641563445329666 4.5140893161296836
leaf_count=109 50 3565 3962 83 1379 51 344 922 863 216 30 62 38 68 20 2082 1511 51 32 38 36 1510 75 30 336 1094 78 25 536 29
internal_value=-0.000407647 -0.0062432 -0.0132818 -0.0214792 -0.000289496 -0.00450521 -0.00373627 -0.00304616 -0.00464028 -0.00797551 0.0123323 0.0180581 -0.00443413 0.0360889 0.0182102 -0.0102293 -0.0154439 -0.0224266 0.0160144 -0.00383646 0.0401622 0.0287637 0.0299741 0.0312836 0.0176416 -0.00821354 0.0134342 -0.00442591 0.00457832 -0.00615652
internal_weight=2940.75 2450.54 1122.96 582.9 1327.58 154.095 1024.98 1007.46 936.702 687.845 68.7115 70.7544 540.056 12.9761 62.9557 619.133 340.988 208.468 12.7817 278.145 9.98794 490.215 472.967 454.472 89.2635 143.336 58.8705 17.2479 248.857 90.1557
internal_count=19225 17199 8861 5190 8338 1228 6959 6850 6444 4957 344 406 3671 106 314 4613 2457 1594 83 2156 74 2026 1951 1876 366 1177 294 75 1487 565
cat_boundaries=0 1
cat_threshold=4
is_linear=0
shrinkage=0.05


Tree=28
num_leaves=31
num_cat=0
split_feature=5 7 17 0 11 11 0 5 17 4 11 6 22 16 21 13 14 17 22 20 4 4 16 15 18 20 11 4 18 16
split_gain=181.587 40.2517 36.5509 14.2837 10.0933 9.54075 7.6486 7.19786 8.91136 8.16386 7.14987 7.25424 7.55763 8.46964 6.87337 8.7153 13.9517 8.20646 8.00653 8.18663 7.14191 6.56934 10.3879 7.97136 7.92545 9.41307 8.00361 12.5227 11.3951 7.14429
threshold=1.5000000000000002 1.0000000180025095e-35 1992.5000000000002 145000.00000000003 229241.50000000003 6742.5000000000009 235000.00000000003 -1.4999999999999998 75.500000000000014 45.500000000000007 535.50000000000011 3.5000000000000004 3818.5000000000005 9827.0000000000018 1100.5000000000002 110492.00000000001 97580.500000000015 5114.0000000000009 3971.5000000000005 3786.0000000000005 55.500000000000007 24.500000000000004 25167.500000000004 28368.000000000004 3007.5000000000005 2136.0000000000005 8306.0000000000018 32.500000000000007 2070.5000000000005 18835.000000000004
decision_type=2 2 2 2 2 2 2 2 2 2 2 2 2 2 2 2 2 2 2 2 2 2 2 2 2 2 2 2 2 2
left_child=1 2 7 14 5 -5 -7 8 -1 -9 -2 12 -12 -14 20 -16 17 -17 19 -18 21 -4 24 -24 25 26 27 -23 -28 -30
right_child=10 -3 3 4 -6 6 -8 9 -10 -11 11 -13 13 -15 15 16 18 -19 -20 -21 -22 22 23 -25 -26 -27 28 -29 29 -31
leaf_value=-0.0026349059049271956 -0.0042208531155055037 0.010110045400355804 -0.020518830924739679 -0.011923564420317986 -0.0031415293340278381 -0.020632714916207679 -0.035424496806855381 -0.0024640097699290546 -0.027780245341232763 0.010332113807691251 0.033049238125237676 -0.002092444361672904 -0.036027794192875766 0.02129790163935686 -0.016025545324195794 0.14678272719410765 -0.023030880195107874 0.029541863882241365 -0.031774101219142196 0.093560931040438278 -0.061049207752331539 0.06950145007909872 0.088949587214044445 0.019718510367433991 -0.027136942942185674 0.049705086571837816 -0.020547409830764984 -0.017208050957201106 0.055522859999145281 -0.019501909851833962
